tree
version=v4
num_class=1
num_tree_per_iteration=1
label_index=0
max_feature_idx=31
objective=binary sigmoid:1
feature_names=is_capitalized is_all_caps is_all_lower has_digits has_punctuation has_hyphen char_length vowel_ratio word_shape_Xxxxx word_shape_XXXXX word_shape_xxxxx word_shape_digits is_first_name is_last_name is_any_name is_city is_country is_stop_word is_title looks_like_email looks_like_phone looks_like_date looks_like_url looks_like_currency prev_is_title prev_is_capitalized next_is_capitalized has_person_context has_location_context has_org_context position_start position_end
feature_infos=[0:1] [0:1] [0:1] [0:1] [0:1] [0:1] [1:21] [0:1] [0:1] [0:1] [0:1] [0:1] [0:1] [0:1] [0:1] [0:1] [0:1] [0:1] [0:1] none none none none [0:1] [0:1] [0:1] [0:1] [0:1] [0:1] [0:1] [0:1] [0:1]
tree_sizes=1730 1761 1758 1773 1767 1773 1758 1770 1798 1790 1801 1773 1783 1800 1771 1780 1778 1773 1761 1790 1768 1771 1769 1759 1790 1785 1776 1790 1783 1779 1770 1783 1799 1766 1784 1790 1779 1781 1778 1784 1770 1767 1784 1767 1789 1774 1768 1786 1788 1771 1789 1783 1763 1769 1781 1780 1768 1763 1756 1759 1780 1797 1775 1775 1785 1778 1758 1776 1766 1774 1791 1764 1793 1778 1769 1781 1771 1770 1760 1786 1789 1759 1783 1770 1773 1780 1755 1767 1768 1780 1778 1778 1770 1788 1778 1766 1784 1760 1774 1793 1771 1787 1778 1790 1788 1776 1763 1768 1765 1780 1774 1779 1782 1759 1774 1774 1781 1786 1792 1781 1789 1765 1785 1776 1791 1789 1773 1787 1775 1795 1774 1773 1778 1785 1769 1793 1798 1792 1783 1779 1780 1770 1781 1777 1782 1786 1769 1789 1782 1811 1782 1785 1766 1784 1776 1784 1780 1804 1772 1776 1784 1796 1784 1777 1791 1777 1782 1793 1779 1797 1806 1798 1782 1771 1785 1807 1792 1761 1801 1795 1776 1797 1796 1808 1785 1798 1788 1785 1798 1797 1794 1801 1784 1802 1789 1794 1801 1780 1800 1787

Tree=0
num_leaves=15
num_cat=0
split_feature=2 30 29 3 6 7 6 29 15 28 29 14 26 26
split_gain=104643 14712 20577.4 6669.43 5070.29 1665.98 3740.31 4623.25 881.639 715.86 683.079 2156.2 646.24 511.04
threshold=1.0000000180025095e-35 1.0000000180025095e-35 1.0000000180025095e-35 1.0000000180025095e-35 3.5000000000000004 0.42261904761904767 9.5000000000000018 1.0000000180025095e-35 1.0000000180025095e-35 1.0000000180025095e-35 1.0000000180025095e-35 1.0000000180025095e-35 1.0000000180025095e-35 1.0000000180025095e-35
decision_type=2 2 2 2 2 2 2 2 2 2 2 2 2 2
left_child=1 3 -3 5 -4 8 7 9 10 -7 11 -1 -11 -13
right_child=-2 2 4 -5 -6 6 -8 -9 -10 12 -12 13 -14 -15
leaf_value=-1.3328764857778637 -1.5157523987182016 -1.5157477696559778 -1.509150575742189 -1.5157188021739398 -1.3172890730383637 -1.5157286042571656 -1.3183706683602754 -1.3173569560456424 -1.459025241676599 -1.5155697517856821 -1.3172795051082797 -1.5156217549072086 -1.351754259955098 -1.4056084959927353
leaf_weight=4347.7464621812105 6105.5839877575636 1167.610751464963 140.05665642023087 192.56130710244179 1075.2329066991806 268.43711256980896 617.64957049489021 223.51089942455292 48.499440088868141 36.275285482406616 2321.7359996438026 50.634252652525902 53.525383368134499 151.24233116209507
leaf_count=8319 40395 7725 903 1274 1626 1776 951 338 250 240 3511 335 128 572
internal_value=-1.41666 -1.36009 -1.42581 -1.34125 -1.3394 -1.33711 -1.36978 -1.42439 -1.33145 -1.49119 -1.33055 -1.33733 -1.41793 -1.43322
internal_weight=16800.3 10694.7 2382.9 8311.82 1215.29 8119.26 1199.4 581.749 6919.86 358.238 6871.36 4549.62 89.8007 201.877
internal_count=68343 27948 10254 17694 2529 16420 3433 2482 12987 2144 12737 9226 368 907
is_linear=0
shrinkage=1


Tree=1
num_leaves=15
num_cat=0
split_feature=0 30 26 6 12 15 7 6 6 26 25 26 26 25
split_gain=94376.6 12464.6 13604.4 3303.72 1326.44 1332.05 831.536 2460.43 749.944 2006.84 535.79 512.578 496.582 246.359
threshold=1.0000000180025095e-35 1.0000000180025095e-35 1.0000000180025095e-35 3.5000000000000004 1.0000000180025095e-35 1.0000000180025095e-35 0.42261904761904767 4.5000000000000009 8.5000000000000018 1.0000000180025095e-35 1.0000000180025095e-35 1.0000000180025095e-35 1.0000000180025095e-35 1.0000000180025095e-35
decision_type=2 2 2 2 2 2 2 2 2 2 2 2 2 2
left_child=-1 4 -3 -4 5 6 13 12 9 -9 -6 -7 -8 -2
right_child=1 2 3 -5 10 11 7 8 -10 -11 -12 -13 -14 -15
leaf_value=-0.036588209997468757 0.12569197566179888 -0.036583240172622433 -0.030123853971350797 0.12194258642628186 0.091980340206123987 -0.036726181495907256 -0.036528560592859242 -0.036513689991062123 0.14055662760769036 0.1364224601703331 0.0046224515562040885 0.15086157297239999 0.065833140803704351 0.13719288196637097
leaf_weight=6152.6909588426352 2668.5435239672661 985.96768145263195 142.20869411528111 1335.2817629873753 181.09527572989464 60.405158311128616 109.26731081306934 87.563241750001907 713.58124355971813 194.10127645730972 97.153038337826729 16.634915828704834 69.820194065570831 4650.8587649315596
leaf_count=41669 4839 6677 936 2641 514 400 740 593 1011 302 519 24 256 7222
internal_value=0.0579724 0.109403 0.0497141 0.107303 0.126018 0.128111 0.129238 0.105764 0.124183 0.0826559 0.0615019 0.00388297 0.00337655 0.133002
internal_weight=17465.2 11312.5 2463.46 1477.49 8849.02 8570.78 8493.74 1174.33 995.246 281.665 278.248 77.0401 179.088 7319.4
internal_count=68343 26674 10254 3577 16420 15387 14963 2902 1906 895 1033 424 996 12061
is_linear=0
shrinkage=0.03


Tree=2
num_leaves=15
num_cat=0
split_feature=0 17 30 26 7 6 26 15 26 5 6 14 26 1
split_gain=82393.7 16009.5 3007.7 8275.93 1095.79 2321.75 2565.42 565.071 366.209 275.895 322.858 252.531 1262.97 231.29
threshold=1.0000000180025095e-35 1.0000000180025095e-35 1.0000000180025095e-35 1.0000000180025095e-35 0.42261904761904767 8.5000000000000018 1.0000000180025095e-35 1.0000000180025095e-35 1.0000000180025095e-35 1.0000000180025095e-35 9.5000000000000018 1.0000000180025095e-35 1.0000000180025095e-35 1.0000000180025095e-35
decision_type=2 2 2 2 2 2 2 2 2 2 2 2 2 2
left_child=-1 2 4 -4 7 6 -6 11 -9 10 -5 -2 -13 -8
right_child=1 -3 3 9 5 -7 13 8 -10 -11 -12 12 -14 -15
leaf_value=-0.036351454589982811 0.12207975978745005 -0.036372770888436899 -0.036338266993898659 0.10518045374297813 -0.036331914165146986 0.12414206906955691 0.098722285730357739 -0.036543696279649186 0.1389666764819934 0.12910554873201338 0.036052262797882345 -0.037248559153824572 0.11428238283670915 -0.036469592842546333
leaf_weight=6009.150571256876 7191.0328268408775 731.00251641869545 462.34474712610245 930.51339891552925 218.10600300133228 781.74582488834858 344.74343231320381 33.996333807706833 15.487295091152189 447.85806751251221 65.343825802206993 52.967530339956284 741.4138301461935 11.697232186794279
leaf_count=41669 10507 4920 3206 1873 1511 1072 774 227 23 574 266 335 1310 76
internal_value=0.0543621 0.0996815 0.108486 0.0741145 0.11546 0.090492 0.0446877 0.119674 0.0184962 0.109489 0.100652 0.1203 0.104171 0.0942683
internal_weight=18037.4 12028.3 11297.3 1906.06 9391.19 1356.29 574.547 8034.9 49.4836 1443.72 995.857 7985.41 794.381 356.441
internal_count=68343 26674 21754 5919 15835 3433 2361 12402 250 2713 2139 12152 1645 850
is_linear=0
shrinkage=0.03


Tree=3
num_leaves=15
num_cat=0
split_feature=0 17 29 30 14 25 26 26 25 27 27 13 5 1
split_gain=72872 13758.5 2868.94 11906.3 1930.65 2029.01 3170.31 1076.54 1020.62 767.917 284.854 169.849 157.06 46.9989
threshold=1.0000000180025095e-35 1.0000000180025095e-35 1.0000000180025095e-35 1.0000000180025095e-35 1.0000000180025095e-35 1.0000000180025095e-35 1.0000000180025095e-35 1.0000000180025095e-35 1.0000000180025095e-35 1.0000000180025095e-35 1.0000000180025095e-35 1.0000000180025095e-35 1.0000000180025095e-35 1.0000000180025095e-35
decision_type=2 2 2 2 2 2 2 2 2 2 2 2 2 2
left_child=-1 2 3 4 5 6 -2 13 9 11 12 -6 -8 -7
right_child=1 -3 -4 -5 8 7 10 -9 -10 -11 -12 -13 -14 -15
leaf_value=-0.036124652585447552 -0.038224953611611129 -0.036124578792361271 0.11802665871985939 -0.03667650060145479 0.02252599664478127 0.10952417375930285 0.086027157152955433 -0.038977144196942336 -0.037385171925917615 -0.038644019519298474 -0.039375747585288522 0.11887839156310974 0.11863941684044951 0.11775755866894415
leaf_weight=5867.6113785207272 221.01077815890312 714.19884648919106 4592.9265766143799 632.08541034162045 19.167745843529701 4801.088721960783 356.14631523191929 43.543904766440392 130.07356394827366 43.028523072600365 13.761065915226935 122.7136457413435 215.64795625209808 754.13470506668091
leaf_count=41669 1354 4920 5538 4287 79 7005 751 248 822 246 74 181 261 908
internal_value=0.0512673 0.0917732 0.0994206 0.0877958 0.0995039 0.10307 0.0585649 0.10948 0.0269697 0.0722516 0.0951025 0.105908 0.0983505 0.110645
internal_weight=18527.1 12659.5 11945.3 7352.4 6720.32 6405.33 806.566 5598.77 314.983 184.91 585.555 141.881 571.794 5555.22
internal_count=68343 26674 21754 16216 11929 10601 2440 8161 1328 506 1086 260 1012 7913
is_linear=0
shrinkage=0.03


Tree=4
num_leaves=15
num_cat=0
split_feature=0 30 29 6 29 25 28 14 27 15 7 6 6 4
split_gain=65133.3 6791.25 12672.6 2494.19 811.962 2500.96 3516.12 2630.35 1515.06 402.967 349.528 2867.69 422.697 233.543
threshold=1.0000000180025095e-35 1.0000000180025095e-35 1.0000000180025095e-35 3.5000000000000004 1.0000000180025095e-35 1.0000000180025095e-35 1.0000000180025095e-35 1.0000000180025095e-35 1.0000000180025095e-35 1.0000000180025095e-35 0.41421568627450983 9.5000000000000018 8.5000000000000018 1.0000000180025095e-35
decision_type=2 2 2 2 2 2 2 2 2 2 2 2 2 2
left_child=-1 4 -3 -4 5 6 -2 10 9 -8 12 -12 13 -7
right_child=1 2 3 -5 -6 7 8 -9 -10 -11 11 -13 -14 -15
leaf_value=-0.035907290339088509 -0.038502527088028954 -0.036207976592140347 -0.028893363177675862 0.10875582507103071 0.1079693980293036 0.10704926447479486 0.099542425978726701 -0.03711205439471077 -0.038728730619414953 -0.017477693149311652 -0.03684548933289105 0.10685536978172931 -0.040611660179646542 0.087978281645425233
leaf_weight=5728.1454259306192 301.72731901705265 1090.0326307564974 129.17335750162601 1420.9183817505836 3429.6263085603714 4275.1583053171635 706.35155299305916 127.14489886164665 84.772096484899521 27.442375272512436 148.76676632463932 779.34038792550564 18.066036477684975 674.46822011470795
leaf_count=41669 1794 7725 903 1626 3907 5063 1071 822 492 173 981 889 93 1135
internal_value=0.0485834 0.0852124 0.0421674 0.0972821 0.0959603 0.0901926 0.0490216 0.0978492 0.0812878 0.0951602 0.100761 0.0838168 0.103924 0.104453
internal_weight=18941.1 13213 2640.12 1550.09 10572.9 7143.24 1120.29 6022.94 818.566 733.794 5895.8 928.107 4967.69 4949.63
internal_count=68343 26674 10254 2529 16420 12513 3530 8983 1736 1244 8161 1870 6291 6198
is_linear=0
shrinkage=0.03


Tree=5
num_leaves=15
num_cat=0
split_feature=0 17 30 26 15 12 26 7 6 26 6 26 31 6
split_gain=58916.3 10727.3 1610.98 5651.14 690.499 729.77 428.896 414.999 1444.33 390.912 315.094 1203.09 196.417 560.969
threshold=1.0000000180025095e-35 1.0000000180025095e-35 1.0000000180025095e-35 1.0000000180025095e-35 1.0000000180025095e-35 1.0000000180025095e-35 1.0000000180025095e-35 0.42261904761904767 4.5000000000000009 1.0000000180025095e-35 8.5000000000000018 1.0000000180025095e-35 1.0000000180025095e-35 8.5000000000000018
decision_type=2 2 2 2 2 2 2 2 2 2 2 2 2 2
left_child=-1 2 4 -4 5 7 -6 12 9 -9 11 -10 -2 -14
right_child=1 -3 3 -5 6 -7 -8 8 10 -11 -12 -13 13 -15
leaf_value=-0.035698869692637199 0.096156431592901631 -0.035662829941154502 -0.035679914057114306 0.0864272317177147 -0.036354456979194559 0.046104206211953082 0.1057061469327729 -0.036519011639010272 -0.035811057390023993 0.051477935858712201 0.098201222186036011 0.097260753220814622 0.085590521211333495 -0.040046572165332917
leaf_weight=5594.7069176733494 8404.1690645813942 688.31377469003201 426.56002885103226 1701.1627871394157 61.906790480017662 314.58260105550289 27.554787218570709 110.03093414008617 81.688029393553734 77.241679340600967 913.84810580313206 242.19436812400818 676.14042407274246 33.48381020128727
leaf_count=41698 10242 4969 3181 2773 429 1015 34 746 597 239 1021 299 1065 177
internal_value=0.0463848 0.0797623 0.0858412 0.0619456 0.0904866 0.0911708 0.00743687 0.0925153 0.077431 -0.000200044 0.0891783 0.0636881 0.0948727 0.0796533
internal_weight=19353.6 13758.9 13070.6 2127.72 10942.8 10853.4 89.4616 10538.8 1425 187.273 1237.73 323.882 9113.79 709.624
internal_count=68485 26787 21818 5954 15864 15401 463 14386 2902 985 1917 896 11484 1242
is_linear=0
shrinkage=0.03


Tree=6
num_leaves=15
num_cat=0
split_feature=0 17 29 7 6 6 6 7 7 8 6 7 27 14
split_gain=53498.5 9566.21 1787.16 1369.05 1188.64 1841.05 2279.21 2294.94 1053.65 594.987 450.924 608.051 601.458 305.493
threshold=1.0000000180025095e-35 1.0000000180025095e-35 1.0000000180025095e-35 0.29705882352941182 3.5000000000000004 9.5000000000000018 5.5000000000000009 0.48333333333333339 0.30384615384615393 1.0000000180025095e-35 4.5000000000000009 0.20714285714285716 1.0000000180025095e-35 1.0000000180025095e-35
decision_type=2 2 2 2 2 2 2 2 2 2 2 2 2 2
left_child=-1 2 3 10 -5 6 7 -6 -7 -8 -2 12 -12 -11
right_child=1 -3 -4 4 5 8 9 -9 -10 13 11 -13 -14 -15
leaf_value=-0.035498952396722259 0.091240146121826224 -0.035442323362068713 0.094098967656111879 0.09137622370322189 0.084070974390730621 -0.015702029761039963 0.033975295589116057 -0.028664942274331865 0.090368337411739483 -0.028245972780319276 0.056617592961036217 0.080942006412923984 -0.038822064683396933 0.020025015895389329
leaf_weight=5459.4722178578377 2639.6427356600761 672.06453470885754 5300.207176566124 816.65652717649937 889.44502563774586 91.729346364736557 311.41222739219666 198.7431356459856 1028.2167987078428 486.73739737272263 280.09495441615582 1235.1470743566751 75.310003370046616 155.5921481102705
leaf_count=41698 3053 4969 5579 937 1270 445 970 1250 1174 3446 708 1889 461 636
internal_value=0.0442986 0.0750197 0.0805156 0.0717438 0.0591047 0.050766 0.0338072 0.0634778 0.0816773 -4.58547e-05 0.0836285 0.0709896 0.0363803 -0.0165473
internal_weight=19640.5 14181 13508.9 8208.73 3978.53 3161.88 2041.93 1088.19 1119.95 953.742 4230.19 1590.55 355.405 642.33
internal_count=68485 26787 21818 16239 10128 9191 7572 2520 1619 5052 6111 3058 1169 4082
is_linear=0
shrinkage=0.03


Tree=7
num_leaves=15
num_cat=0
split_feature=0 17 30 26 15 7 6 26 26 31 25 8 5 6
split_gain=48878.8 8602.62 1248.23 4607.76 551.794 382.043 1069.9 1529.62 369.525 137.358 935.29 368.833 135.268 195.165
threshold=1.0000000180025095e-35 1.0000000180025095e-35 1.0000000180025095e-35 1.0000000180025095e-35 1.0000000180025095e-35 0.42261904761904767 8.5000000000000018 1.0000000180025095e-35 1.0000000180025095e-35 1.0000000180025095e-35 1.0000000180025095e-35 1.0000000180025095e-35 1.0000000180025095e-35 9.5000000000000018
decision_type=2 2 2 2 2 2 2 2 2 2 2 2 2 2
left_child=-1 2 4 -4 5 9 7 -7 -6 -2 -11 -12 13 -5
right_child=1 -3 3 12 8 6 -8 -9 -10 10 11 -13 -14 -15
leaf_value=-0.035307099465269977 0.083621945967712052 -0.035230086036540244 -0.035381151810041887 0.073297632617458044 -0.036224671636218064 -0.03590537416338771 0.085920809665763362 0.067565305769545697 0.092633654354078457 -0.041044009636987358 0.08424844109887801 -0.039563791101475156 0.087961243577675624 0.023460660186180843
leaf_weight=5326.4743546545506 9234.2170988172293 656.07220508158207 410.79476916790009 1168.5441017746925 60.875229150056839 187.6572317481041 983.7348907738924 407.83053436875343 29.72210219502449 62.256965667009354 670.98726907372475 22.287677049636841 573.16303980350494 75.592761158943176
leaf_count=41698 10915 4969 3181 1905 429 1365 1047 808 34 317 822 127 583 285
internal_value=0.0424417 0.0709165 0.0759315 0.0553473 0.0798642 0.0804418 0.0667073 0.0349528 0.00607209 0.082612 0.070255 0.0802586 0.0758587 0.0702741
internal_weight=19870.2 14543.7 13887.7 2228.09 11659.6 11569 1579.22 595.488 90.5973 9989.75 755.532 693.275 1817.3 1244.14
internal_count=68485 26787 21818 5954 15864 15401 3220 2173 463 12181 1266 949 2773 2190
is_linear=0
shrinkage=0.03


Tree=8
num_leaves=15
num_cat=0
split_feature=10 17 31 28 3 29 30 4 28 25 25 28 26 26
split_gain=29293.7 6423.27 6657.08 6179.02 1890.45 1861.47 6833.46 2478.32 2253.69 1478.71 700.244 1547.11 1363.06 859.165
threshold=1.0000000180025095e-35 1.0000000180025095e-35 1.0000000180025095e-35 1.0000000180025095e-35 1.0000000180025095e-35 1.0000000180025095e-35 1.0000000180025095e-35 1.0000000180025095e-35 1.0000000180025095e-35 1.0000000180025095e-35 1.0000000180025095e-35 1.0000000180025095e-35 1.0000000180025095e-35 1.0000000180025095e-35
decision_type=2 2 2 2 2 2 2 2 2 2 2 2 2 2
left_child=1 2 4 -4 5 6 7 10 -9 -5 11 -1 -12 -13
right_child=-2 -3 3 9 -6 -7 -8 8 -10 -11 12 13 -14 -15
leaf_value=-0.03835499676590725 -0.035122419885945715 -0.035025687498057852 -0.035535354360826971 -0.038338903718805717 -0.035082082697802212 0.083811035342273105 -0.036437680268636377 -0.03826966044407764 0.073538947546411312 0.084334470514430632 0.079903807286522799 -0.037804173099541469 -0.039436063333144492 0.080677529453131724
leaf_weight=151.13199877738953 3726.1634123325348 640.34214946627617 1129.0945898890495 99.622930407524109 154.01443219184875 5608.6180380582809 596.26811224967241 351.1703424602747 301.4062759578228 781.57106594741344 5811.8660384863615 61.119938589632511 87.342395350337029 549.80232821404934
leaf_count=952 29904 4969 8854 636 1236 5579 4287 2390 483 817 6810 395 487 686
internal_value=0.0407744 0.0580998 0.0619025 0.0109264 0.0693971 0.0705879 0.0612108 0.0691725 0.0133703 0.0704595 0.0746384 0.0475545 0.0781357 0.0688148
internal_weight=20049.5 16323.4 15683 2010.29 13672.7 13518.7 7910.11 7313.84 652.577 881.194 6661.26 762.054 5899.21 610.922
internal_count=68485 38581 33612 10307 23305 22069 16490 12203 2873 1453 9330 2033 7297 1081
is_linear=0
shrinkage=0.03


Tree=9
num_leaves=15
num_cat=0
split_feature=10 17 31 28 29 25 28 4 27 25 7 12 13 15
split_gain=27136.5 5900.31 5976.57 5763.6 1467.21 4804.67 4216.08 2682.74 2419.4 1342.6 1267.16 1126.64 582.93 216.574
threshold=1.0000000180025095e-35 1.0000000180025095e-35 1.0000000180025095e-35 1.0000000180025095e-35 1.0000000180025095e-35 1.0000000180025095e-35 1.0000000180025095e-35 1.0000000180025095e-35 1.0000000180025095e-35 1.0000000180025095e-35 1.0000000180025095e-35 1.0000000180025095e-35 1.0000000180025095e-35 1.0000000180025095e-35
decision_type=2 2 2 2 2 2 2 2 2 2 2 2 2 2
left_child=1 2 4 -4 5 6 -1 11 13 -5 -6 12 -7 -8
right_child=-2 -3 3 9 10 7 8 -9 -10 -11 -12 -13 -14 -15
leaf_value=-0.036860256132088598 -0.034945534049167767 -0.034828712253496708 -0.03534602513368678 -0.038035112560649224 -0.024966031298095933 0.076240866111080066 0.079899319119268869 -0.039601373933689198 -0.036355961715609751 0.079855804618901224 0.079488338704540459 -0.038194615660204594 -0.038667443982815512 -0.0047457205174579135
leaf_weight=793.45726563036442 3634.065910577774 624.87898337095976 1101.5056719258428 97.439888663589954 106.38177351653576 5917.8476587533951 822.55419763922691 193.07467351853848 211.02258474379778 800.34542964398861 5724.9812067747116 79.439032763242722 39.910998180508614 28.054884932935238
leaf_count=5620 29904 4969 8854 636 808 6679 950 1238 1569 817 5570 472 231 168
internal_value=0.0392825 0.0555908 0.0591412 0.0106367 0.066109 0.0578333 0.0154489 0.0704525 0.0545471 0.0670545 0.0775819 0.0739732 0.07547 0.0771038
internal_weight=20175 16540.9 15916 1999.29 13916.7 8085.36 1855.09 6230.27 1061.63 897.785 5831.36 6037.2 5957.76 850.609
internal_count=68485 38581 33612 10307 23305 16927 8307 8620 2687 1453 6378 7382 6910 1118
is_linear=0
shrinkage=0.03


Tree=10
num_leaves=15
num_cat=0
split_feature=10 17 31 28 3 29 30 4 28 25 12 15 25 25
split_gain=25459.1 5449.34 5188.52 5562.44 1589.54 1412.36 5716.75 2098.73 1895.63 1212.01 1202.18 473.22 231.705 192.455
threshold=1.0000000180025095e-35 1.0000000180025095e-35 1.0000000180025095e-35 1.0000000180025095e-35 1.0000000180025095e-35 1.0000000180025095e-35 1.0000000180025095e-35 1.0000000180025095e-35 1.0000000180025095e-35 1.0000000180025095e-35 1.0000000180025095e-35 1.0000000180025095e-35 1.0000000180025095e-35 1.0000000180025095e-35
decision_type=2 2 2 2 2 2 2 2 2 2 2 2 2 2
left_child=1 2 4 -4 5 6 7 10 -9 -5 11 13 -10 -1
right_child=-2 -3 3 9 -6 -7 -8 8 12 -11 -12 -13 -14 -15
leaf_value=0.054907386676006011 -0.034775609672873679 -0.034643727378710312 -0.035170882882632308 -0.037795240848248486 -0.034795558306802005 0.075723426763949261 -0.035981941221849445 -0.037642201693411682 0.07197498656145436 0.075892339528750685 -0.0079646172342536306 -0.029552100486222928 -0.044453999158523681 0.072241755949714562
leaf_weight=640.49462915211916 3578.9498784840107 609.06605529785156 1068.0805031955242 93.548602938652039 147.16297555714846 5716.3066983819008 562.75586604326963 338.19717609137297 286.0975317209959 854.33037315309048 182.92483934760094 42.645963340997696 16.160477370023727 6077.1138825267553
leaf_count=1313 30202 4961 8800 622 1231 5463 4246 2417 401 858 855 318 75 6811
internal_value=0.0378087 0.0534253 0.0567728 0.0117707 0.0632481 0.0642894 0.0562649 0.063111 0.0111403 0.0646663 0.0679042 0.0699577 0.0657274 0.0705903
internal_weight=20213.8 16634.9 16025.8 2015.96 14009.9 13862.7 8146.39 7583.63 640.455 947.879 6943.18 6760.25 302.258 6717.61
internal_count=68573 38371 33410 10280 23130 21899 16436 12190 2893 1480 9297 8442 476 8124
is_linear=0
shrinkage=0.03


Tree=11
num_leaves=15
num_cat=0
split_feature=0 17 7 6 26 27 28 25 26 15 26 12 6 12
split_gain=35909.9 5997.87 486.006 1205.8 1893.01 260.372 938.101 177.387 1726.15 174.132 183.751 165.103 153.519 105.21
threshold=1.0000000180025095e-35 1.0000000180025095e-35 0.42261904761904767 8.5000000000000018 1.0000000180025095e-35 1.0000000180025095e-35 1.0000000180025095e-35 1.0000000180025095e-35 1.0000000180025095e-35 1.0000000180025095e-35 1.0000000180025095e-35 1.0000000180025095e-35 4.5000000000000009 1.0000000180025095e-35
decision_type=2 2 2 2 2 2 2 2 2 2 2 2 2 2
left_child=-1 2 5 4 -4 9 -7 8 -8 13 -11 12 -6 -2
right_child=1 -3 3 -5 11 6 7 -9 -10 10 -12 -13 -14 -15
leaf_value=-0.034615283252868542 0.067381437032415614 -0.034460271551639728 -0.035888310086639105 0.069995563143657236 0.033327466348222333 -0.041534815052873424 -0.035870093763618556 0.070010268698873598 0.069777861562008089 -0.035500534909213524 0.074908573595413808 0.018674910948772886 0.071439249484008302 0.048947314989483459
leaf_weight=4849.206759519875 10665.050971195102 594.16499391943216 315.6820574849844 1118.7467076182365 128.25379949808121 87.440095752477646 170.37703483551741 754.82021614909172 758.10250306129456 30.630756072700024 24.172608479857445 95.642920076847076 375.15292519330978 288.65672722458839
leaf_count=41962 12790 4961 2371 1145 384 447 1339 778 774 231 24 348 393 626
internal_value=0.0365826 0.0589918 0.0627408 0.049106 0.0235492 0.0649097 0.0542138 0.0591915 0.0503863 0.0666294 0.0131917 0.0548769 0.061744 0.0668964
internal_weight=20256.1 15406.9 14812.7 2033.48 914.732 12779.3 1770.74 1683.3 928.48 11008.5 54.8034 599.05 503.407 10953.7
internal_count=68573 26611 21650 4641 3496 17009 3338 2891 2113 13671 255 1125 777 13416
is_linear=0
shrinkage=0.03


Tree=12
num_leaves=15
num_cat=0
split_feature=0 17 29 30 12 28 7 6 28 4 28 27 26 27
split_gain=33462.7 5536.53 954.724 5341.65 1020.72 345.861 286.671 1807.75 364.581 290.531 1704.33 405.781 262.153 166.318
threshold=1.0000000180025095e-35 1.0000000180025095e-35 1.0000000180025095e-35 1.0000000180025095e-35 1.0000000180025095e-35 1.0000000180025095e-35 0.41421568627450983 9.5000000000000018 1.0000000180025095e-35 1.0000000180025095e-35 1.0000000180025095e-35 1.0000000180025095e-35 1.0000000180025095e-35 1.0000000180025095e-35
decision_type=2 2 2 2 2 2 2 2 2 2 2 2 2 2
left_child=-1 2 3 4 6 -6 9 8 -8 -2 -11 -12 -10 -7
right_child=1 -3 -4 -5 5 13 7 -9 12 10 11 -13 -14 -15
leaf_value=-0.034458187158498521 0.066686937847398875 -0.034283162816673644 0.069663635676862359 -0.0359774378038311 -0.038322560055232512 0.07371112213293643 -0.036720237558392946 0.068372578811028303 -0.035787373608438505 -0.042989531249807339 0.06724098113488064 -0.043164700508155428 0.070111914075983911 -0.040321429239957934
leaf_weight=4727.0209505110979 5862.1661066710949 579.53900154680014 5858.3694640994072 555.82849819213152 124.05874694883823 49.530471011996269 213.14659308642149 981.88750502467155 31.702901266515255 153.12430912256241 1031.274232417345 30.759252563118935 61.986886769533157 14.879634216427801
leaf_count=41962 6312 4961 5463 4246 736 74 1463 939 241 731 1140 152 76 77
internal_value=0.035439 0.0566896 0.0602122 0.0541335 0.0599891 -0.00903523 0.0615445 0.0485112 -0.0150376 0.0639166 0.0505453 0.0640368 0.0342456 0.0472998
internal_weight=20275.3 15548.3 14968.7 9110.35 8554.52 188.469 8366.05 1288.72 306.836 7077.32 1215.16 1062.03 93.6898 64.4101
internal_count=68573 26611 21650 16187 11941 887 11054 2719 1780 8335 2023 1292 317 151
is_linear=0
shrinkage=0.03


Tree=13
num_leaves=15
num_cat=0
split_feature=10 17 31 25 3 29 30 12 6 25 26 26 13 27
split_gain=20806.5 4368.72 3968.24 4056.47 1253.67 1108.62 4744.26 856.332 804.575 752.917 870.123 547.157 507.415 231.468
threshold=1.0000000180025095e-35 1.0000000180025095e-35 1.0000000180025095e-35 1.0000000180025095e-35 1.0000000180025095e-35 1.0000000180025095e-35 1.0000000180025095e-35 1.0000000180025095e-35 11.500000000000002 1.0000000180025095e-35 1.0000000180025095e-35 1.0000000180025095e-35 1.0000000180025095e-35 1.0000000180025095e-35
decision_type=2 2 2 2 2 2 2 2 2 2 2 2 2 2
left_child=1 2 4 -4 5 6 7 9 -5 10 -1 12 -11 -12
right_child=-2 -3 3 8 -6 -7 -8 -9 -10 11 13 -13 -14 -15
leaf_value=-0.03758563752865423 -0.034304242346377647 -0.03411208218584591 -0.034740219102999334 0.059560404794804109 -0.034315046900535585 0.066996864192961733 -0.035770836336960238 -0.008244950210152948 -0.034251346902119825 0.063019199073601762 0.04693086331247627 -0.041902842786510623 -0.039865428827139428 -0.038525986696176247
leaf_weight=130.03832343965769 3315.1599030941725 565.18950979411602 929.94805484265089 951.79912921786308 136.35581232607365 5908.0060901641846 542.47009230405092 182.41502523422241 89.959112718701363 6335.7937470525503 1036.6055941283703 45.560611009597778 43.339587718248367 29.223074033856392
leaf_count=911 30202 4961 8223 1238 1231 5463 4246 855 819 7237 2520 240 239 188
internal_value=0.0344218 0.0478824 0.0507152 0.0107996 0.0561841 0.0570503 0.0500078 0.055972 0.0514541 0.0575096 0.0356418 0.0615789 0.0623191 0.0445816
internal_weight=20241.9 16926.7 16361.5 1971.71 14389.8 14253.5 8345.45 7802.98 1041.76 7620.56 1195.87 6424.69 6379.13 1065.83
internal_count=68573 38371 33410 10280 23130 21899 16436 12190 2057 11335 3619 7716 7476 2708
is_linear=0
shrinkage=0.03


Tree=14
num_leaves=15
num_cat=0
split_feature=0 29 25 26 28 26 13 6 27 13 7 6 6 6
split_gain=29448.6 1132.24 5380.71 3313.43 2669.46 1198.18 666.939 634.356 301.004 270.799 125.432 1365.29 295.274 68.8501
threshold=1.0000000180025095e-35 1.0000000180025095e-35 1.0000000180025095e-35 1.0000000180025095e-35 1.0000000180025095e-35 1.0000000180025095e-35 1.0000000180025095e-35 3.5000000000000004 1.0000000180025095e-35 1.0000000180025095e-35 0.41421568627450983 9.5000000000000018 8.5000000000000018 5.5000000000000009
decision_type=2 2 2 2 2 2 2 2 2 2 2 2 2 2
left_child=-1 2 3 -2 -5 6 10 9 -6 -3 12 -12 13 -4
right_child=1 7 5 4 8 -7 -8 -9 -10 -11 11 -13 -14 -15
leaf_value=-0.034177567567017543 -0.035182523872079111 -0.022854851584224924 0.06460068117749343 -0.038827839892087442 0.067572888211897664 -0.039330688571185012 -0.038769982128572793 0.064547257897611177 -0.041207014512348525 0.076820824659628612 -0.037245362850983267 0.064052305702656451 -0.042871499444906799 0.056587752397096493
leaf_weight=4501.8304357007146 997.73245164752007 107.78944397717714 4933.200940862298 298.51875394582748 873.52216310799122 110.60116071999073 60.787454895675182 5900.5249745845795 23.412550926208496 31.6494300365448 136.38517709821463 976.14008858799934 23.695188492536545 1218.4090909659863
leaf_count=41962 8499 896 4652 1748 862 642 360 5423 118 31 873 902 117 1488
internal_value=0.0334594 0.0528633 0.0464865 0.00517685 0.0388636 0.0586318 0.0601072 0.0630527 0.0647258 -0.000170417 0.0609328 0.0516292 0.0626076 0.063015
internal_weight=20194.2 15692.4 9652.41 2193.19 1195.45 7459.22 7348.62 6039.96 896.935 139.439 7287.83 1112.53 6175.31 6151.61
internal_count=68573 26611 20261 11227 2728 9034 8392 6350 980 927 8032 1775 6257 6140
is_linear=0
shrinkage=0.03


Tree=15
num_leaves=15
num_cat=0
split_feature=0 17 29 25 28 26 26 13 7 4 28 28 13 7
split_gain=27666.5 4419.2 756.571 2832.15 2618.55 2015.09 1137.88 636.034 118.051 89.3564 885.622 29.8127 11.5762 17.3568
threshold=1.0000000180025095e-35 1.0000000180025095e-35 1.0000000180025095e-35 1.0000000180025095e-35 1.0000000180025095e-35 1.0000000180025095e-35 1.0000000180025095e-35 1.0000000180025095e-35 0.41421568627450983 1.0000000180025095e-35 1.0000000180025095e-35 1.0000000180025095e-35 1.0000000180025095e-35 0.44097222222222227
decision_type=2 2 2 2 2 2 2 2 2 2 2 2 2 2
left_child=-1 2 3 4 -2 -6 7 8 9 -5 -11 -10 13 -7
right_child=1 -3 -4 6 5 12 -8 -9 11 10 -12 -13 -14 -15
leaf_value=-0.034037095388212882 -0.036849451937604943 -0.033787230259631054 0.062459167191672389 0.062080800806214559 -0.03614344639549092 0.061131019673812848 -0.039092305618418137 -0.038446205500515182 0.047357132392109161 -0.044781446139895938 0.061322379796127868 0.059333519964405008 0.068783416429372357 0.038336751384906199
leaf_weight=4372.8155729100108 594.5406938046217 531.36374779045582 6047.5190173983574 5335.960567548871 239.65617633610964 665.01986630260944 109.67586146295071 60.663568325340748 869.10440066456795 77.892288118600845 767.10475124418736 244.52331149578094 186.16302034258842 32.914021387696266
leaf_count=41831 4328 4901 5540 5070 1919 713 646 365 1526 354 772 257 184 70
internal_value=0.0327271 0.0512495 0.0542167 0.0487877 0.0140591 0.0409967 0.0567809 0.0582114 0.0590162 0.0606403 0.051534 0.0499946 0.0619126 0.060066
internal_weight=20134.9 15762.1 15230.7 9183.22 1718.29 1123.75 7464.92 7355.25 7294.59 6180.96 844.997 1113.63 884.097 697.934
internal_count=68476 26645 21744 16204 7214 2886 8990 8344 7979 6196 1126 1783 967 783
is_linear=0
shrinkage=0.03


Tree=16
num_leaves=15
num_cat=0
split_feature=0 17 12 13 15 25 31 5 13 4 27 6 13 6
split_gain=26057.9 4135.74 282.459 289.911 277.381 172.129 605.032 296.774 365.913 1056.25 194.037 164.124 146.103 125.803
threshold=1.0000000180025095e-35 1.0000000180025095e-35 1.0000000180025095e-35 1.0000000180025095e-35 1.0000000180025095e-35 1.0000000180025095e-35 1.0000000180025095e-35 1.0000000180025095e-35 1.0000000180025095e-35 1.0000000180025095e-35 1.0000000180025095e-35 7.5000000000000009 1.0000000180025095e-35 9.5000000000000018
decision_type=2 2 2 2 2 2 2 2 2 2 2 2 2 2
left_child=-1 2 4 -4 5 6 7 8 9 10 11 -2 -6 -11
right_child=1 -3 3 -5 12 -7 -8 -9 -10 13 -12 -13 -14 -15
leaf_value=-0.03390192758897425 0.018538222945424288 -0.033632129650948916 0.0038503041949454002 0.050242705665222299 -0.027676904937438237 0.056499965240480947 -0.038890302945395132 0.060314198647016183 0.061520242180570124 0.055481718536408875 -0.0079282754810254766 0.059304150544000594 0.055868996544570809 0.029026032102461918
leaf_weight=4260.2432756796479 736.11064989864826 518.00214406847954 213.435557320714 281.03226435184479 57.855701766908169 8222.6626490131021 68.175036191940308 2044.8528405427933 1084.602694824338 2000.7976134419441 224.39751464128494 101.14017128944397 27.810354627668858 176.9214596003294
leaf_count=41831 3059 4901 866 476 448 9153 404 1870 996 2407 1466 99 38 462
internal_value=0.0319251 0.0497222 0.0525558 0.0302285 0.0533041 0.0536187 0.0499368 0.0508887 0.0464293 0.041374 0.0168327 0.0234728 -0.000486334 0.0533352
internal_weight=20018 15757.8 15239.8 494.468 14745.3 14659.7 6437 6368.82 4323.97 3239.37 1061.65 837.251 85.6661 2177.72
internal_count=68476 26645 21744 1342 20402 19916 10763 10359 8489 7493 4624 3158 486 2869
is_linear=0
shrinkage=0.03


Tree=17
num_leaves=15
num_cat=0
split_feature=0 29 7 6 7 6 28 27 6 7 26 28 13 26
split_gain=24536.1 976.105 1034.02 743.623 1840.83 927.898 912.066 682.603 559.989 521.994 252.056 422.577 209.597 169.961
threshold=1.0000000180025095e-35 1.0000000180025095e-35 0.29705882352941182 9.5000000000000018 0.42261904761904767 5.5000000000000009 1.0000000180025095e-35 1.0000000180025095e-35 3.5000000000000004 0.30384615384615393 1.0000000180025095e-35 1.0000000180025095e-35 1.0000000180025095e-35 1.0000000180025095e-35
decision_type=2 2 2 2 2 2 2 2 2 2 2 2 2 2
left_child=-1 2 -2 4 5 13 -7 -8 12 -5 -6 -12 -3 -4
right_child=1 8 3 9 10 6 7 -9 -10 -11 11 -13 -14 -15
leaf_value=-0.033771785431428968 0.051968584969826072 -0.024916497447972613 0.046500847161698361 -0.020021725935913007 -0.035308733686484677 -0.038451884812092184 0.054817920040616162 -0.034939488623470356 0.058856251328895701 0.057481526950536967 -0.037192947615239509 0.052437413219715796 0.072524131290074803 0.0096944416686001768
leaf_weight=4150.0253989547491 4864.6080796420574 99.514577850699425 2105.4549364894629 83.77009505033493 417.47446548193693 269.05538725852966 308.3924468010664 101.17429972440004 6021.7548885345459 1157.5669084712863 97.177947893738747 92.105071663856506 24.712548971176147 119.59517484903336
leaf_count=41831 6460 906 4306 425 3529 1808 399 946 5510 1147 627 136 24 422
internal_value=0.0311276 0.0482151 0.0422445 0.0322881 0.0252279 0.0351589 0.00444499 0.0326349 0.0575556 0.0522477 -0.0222904 0.00640998 -0.00546572 0.0445244
internal_weight=19912.4 15762.4 9616.37 4751.77 3510.43 2903.67 678.622 409.567 6145.98 1241.34 606.757 189.283 124.227 2225.05
internal_count=68476 26645 20205 13745 12173 7881 3153 1345 6440 1572 4292 763 930 4728
is_linear=0
shrinkage=0.03


Tree=18
num_leaves=15
num_cat=0
split_feature=0 30 29 6 29 25 26 26 28 13 7 6 6 6
split_gain=23145 1559.05 5085.9 641.238 239.298 688.225 1647.08 1019.78 1015.3 114.252 106.186 1272.66 245.453 77.1721
threshold=1.0000000180025095e-35 1.0000000180025095e-35 1.0000000180025095e-35 3.5000000000000004 1.0000000180025095e-35 1.0000000180025095e-35 1.0000000180025095e-35 1.0000000180025095e-35 1.0000000180025095e-35 1.0000000180025095e-35 0.41421568627450983 9.5000000000000018 8.5000000000000018 5.5000000000000009
decision_type=2 2 2 2 2 2 2 2 2 2 2 2 2 2
left_child=-1 4 -3 9 5 6 -2 10 -8 -4 12 -12 13 -7
right_child=1 2 3 -5 -6 7 8 -9 -10 -11 11 -13 -14 -15
leaf_value=-0.033646454497970428 -0.037189556285708934 -0.03469411586123728 -0.029865794813054316 0.057630149677251094 0.057057215645226152 0.056757668100467985 -0.039857560555553985 -0.03923187808537424 0.056408174614658822 0.081973070743090806 -0.037332730443177455 0.05706806456613063 -0.042558071597569837 0.048400664665709282
leaf_weight=4042.1487771123648 273.94157932698727 849.92760636657476 92.326472207903862 1808.6767630577087 4222.2580829262733 4965.4059128165245 110.72720225155354 108.96943528950214 893.37663161754608 8.9158645272254926 147.86048187315464 978.16217786073685 23.160772204399109 1257.6716776937246
leaf_count=41831 1950 7687 901 1657 3873 4769 610 646 968 9 946 902 117 1610
internal_value=0.0303869 0.04683 0.0263501 0.0535171 0.0511835 0.0483513 0.0279973 0.0518276 0.0457866 -0.019916 0.0531745 0.0446672 0.0547069 0.05507
internal_weight=19783.5 15741.4 2759.85 1909.92 12981.5 8759.28 1278.05 7481.23 1004.1 101.242 7372.26 1126.02 6246.24 6223.08
internal_count=68476 26645 10254 2567 16391 12518 3528 8990 1578 910 8344 1848 6496 6379
is_linear=0
shrinkage=0.03


Tree=19
num_leaves=15
num_cat=0
split_feature=0 17 29 30 12 25 26 13 26 7 4 27 13 25
split_gain=21910.3 3576.87 623.682 3569.46 777.077 334.813 1301.76 501.688 425.088 97.9999 89.2109 513.838 80.9793 93.7586
threshold=1.0000000180025095e-35 1.0000000180025095e-35 1.0000000180025095e-35 1.0000000180025095e-35 1.0000000180025095e-35 1.0000000180025095e-35 1.0000000180025095e-35 1.0000000180025095e-35 1.0000000180025095e-35 0.41421568627450983 1.0000000180025095e-35 1.0000000180025095e-35 1.0000000180025095e-35 1.0000000180025095e-35
decision_type=2 2 2 2 2 2 2 2 2 2 2 2 2 2
left_child=-1 2 3 4 5 6 -2 8 9 10 -7 -12 -6 -14
right_child=1 -3 -4 -5 12 7 -8 -9 -10 -11 11 -13 13 -15
leaf_value=-0.033525725996633851 -0.037570059555182667 -0.033425526280226311 0.055744056641893878 -0.03509302586734913 -0.031254200160911433 0.055524585339928226 0.048558004695115217 -0.039648367837028277 -0.041334554979309122 0.04435991539757745 0.050941618141454238 -0.046808574058683966 0.037740477121968076 -0.037108876597207338
leaf_weight=3936.5979043021798 190.9479753151536 498.41716940701008 6019.963877081871 494.32725535333157 107.20296428352594 5324.0992030203342 910.80428838729858 53.997306905686855 43.511669889092445 1108.4228445291519 797.69144567847252 51.416489124298096 42.156378954648972 23.280533030629158
leaf_count=41831 1354 4901 5540 4275 641 5040 1220 305 236 1761 898 228 97 149
internal_value=0.0297447 0.0456435 0.0482421 0.0433045 0.0477836 0.0490663 0.0336261 0.0513707 0.0520426 0.0526016 0.0540801 0.0450142 -0.015205 0.0110495
internal_weight=19602.8 15666.2 15167.8 9147.86 8653.53 8480.89 1101.75 7379.14 7325.14 7281.63 6173.21 849.108 172.64 65.4369
internal_count=68476 26645 21744 16204 11929 11042 2574 8468 8163 7927 6166 1126 887 246
is_linear=0
shrinkage=0.03


Tree=20
num_leaves=15
num_cat=0
split_feature=0 17 30 26 12 15 26 26 31 28 5 6 28 6
split_gain=20647.4 3387.85 392.43 1918.13 263.631 189.833 177.343 72.7202 64.2867 582.885 50.0172 82.2435 47.3077 44.2202
threshold=1.0000000180025095e-35 1.0000000180025095e-35 1.0000000180025095e-35 1.0000000180025095e-35 1.0000000180025095e-35 1.0000000180025095e-35 1.0000000180025095e-35 1.0000000180025095e-35 1.0000000180025095e-35 1.0000000180025095e-35 1.0000000180025095e-35 9.5000000000000018 1.0000000180025095e-35 6.5000000000000009
decision_type=2 2 2 2 2 2 2 2 2 2 2 2 2 2
left_child=-1 2 4 -4 5 8 -7 -6 -2 -10 11 -5 -9 -11
right_child=1 -3 3 10 7 6 -8 12 9 13 -12 -13 -14 -15
leaf_value=-0.033409131203431544 0.050627859820006324 -0.033534755571380997 -0.033764399915760968 0.045114491578313487 -0.0365095055561784 -0.035343599065365702 0.056388160596588917 0.019720035327665128 -0.04302303421460571 0.05359310625055444 0.053780391258261194 0.01218986044846304 0.043965735896018432 0.039439229594107755
leaf_weight=3831.2348434627056 11338.405885823071 486.04900459945202 311.286261677742 1201.071118965745 16.974752806127071 45.313824340701103 32.466239094734192 248.20376348495483 66.615882679820061 600.83092939853668 603.2756884098053 72.759871110320091 102.9462858736515 302.63277821242809
leaf_count=41810 12786 4920 3154 1821 115 380 30 785 355 614 559 286 171 534
internal_value=0.0289234 0.044402 0.0469374 0.035192 0.0489522 0.0496961 0.00293095 0.0239084 0.0499913 0.0425437 0.04663 0.0432373 0.0268472 0.0488602
internal_weight=19260.1 15428.8 14942.8 2188.39 12754.4 12386.3 77.7801 368.125 12308.5 970.08 1877.11 1273.83 351.15 903.464
internal_count=68320 26510 21590 5820 15770 14699 410 1071 14289 1503 2666 2107 956 1148
is_linear=0
shrinkage=0.03


Tree=21
num_leaves=15
num_cat=0
split_feature=0 17 29 30 12 25 14 5 14 7 6 7 6 6
split_gain=19558.2 3193.63 602.518 3192.42 691.951 299.406 480.258 221.809 280.259 114.725 1128.82 102.975 98.8571 114.714
threshold=1.0000000180025095e-35 1.0000000180025095e-35 1.0000000180025095e-35 1.0000000180025095e-35 1.0000000180025095e-35 1.0000000180025095e-35 1.0000000180025095e-35 1.0000000180025095e-35 1.0000000180025095e-35 0.48333333333333339 9.5000000000000018 0.41421568627450983 9.5000000000000018 5.5000000000000009
decision_type=2 2 2 2 2 2 2 2 2 2 2 2 2 2
left_child=-1 2 3 4 5 7 9 8 11 -7 -11 12 13 -2
right_child=1 -3 -4 -5 -6 6 -8 -9 -10 10 -12 -13 -14 -15
leaf_value=-0.033297030955768941 0.00020472800997822085 -0.033401937333105709 0.053187580213309583 -0.034971950288456878 -0.013542798540200901 0.050700134948435741 -0.039508176223496373 0.054376130327619857 0.056940248401003903 -0.03782939614601398 0.053368000503758187 -0.011093130869857155 -0.015685009782729815 0.033803332238539596
leaf_weight=3730.3332236558199 124.74322263151407 473.53171620517969 5891.26442694664 473.47901986539364 177.46781475096941 6220.9352998286486 55.221449345350266 290.57569976896048 180.32876058667898 144.04536793380976 800.07526652514935 114.91373363882303 60.945532627403736 344.51520977914333
leaf_count=41810 409 4920 5481 4240 895 6460 318 275 174 883 745 744 265 701
internal_value=0.0283158 0.0432872 0.0457283 0.0408378 0.0450546 0.0463025 0.0485389 0.0318279 0.0238811 0.0492185 0.0394482 0.0146281 0.0202095 0.0248801
internal_weight=19082.4 15352 14878.5 8987.25 8513.77 8336.3 7220.28 1116.02 825.446 7165.06 944.121 645.118 530.204 469.258
internal_count=68320 26510 21590 16109 11869 10974 8406 2568 2293 8088 1628 2119 1375 1110
is_linear=0
shrinkage=0.03


Tree=22
num_leaves=15
num_cat=0
split_feature=0 17 29 30 25 26 26 13 27 6 6 13 6 6
split_gain=18577.3 3020.8 574.238 3018.62 361.96 1091.04 866.472 513.776 439.02 62.6189 60.5487 77.9779 29.7307 161.545
threshold=1.0000000180025095e-35 1.0000000180025095e-35 1.0000000180025095e-35 1.0000000180025095e-35 1.0000000180025095e-35 1.0000000180025095e-35 1.0000000180025095e-35 1.0000000180025095e-35 1.0000000180025095e-35 3.5000000000000004 4.5000000000000009 1.0000000180025095e-35 9.5000000000000018 8.5000000000000018
decision_type=2 2 2 2 2 2 2 2 2 2 2 2 2 2
left_child=-1 2 3 4 5 -2 7 9 10 -6 11 -7 13 -11
right_child=1 -3 -4 -5 6 8 -8 -9 -10 12 -12 -13 -14 -15
leaf_value=-0.033188965172351488 -0.037579192694516962 -0.033273462482285715 0.051988319674663566 -0.034805772745225672 0.052308293789543402 -0.0094411309404943237 -0.039086990133674976 -0.03878643457524103 -0.040041843323547675 0.045603511654171196 0.047863385156728513 0.052943202849812687 0.051180567465249426 -0.042098483331035177
leaf_weight=3631.6945795342326 188.22814033180475 461.28465305268764 5847.0100393295288 461.6466628164053 2527.8981825858355 39.086515471339226 104.80694559216499 61.10015083104372 56.748550549149513 3595.4415607079864 896.26810346543789 33.236004382371902 942.46745358407497 18.89343985170126
leaf_count=41810 1343 4920 5481 4240 2372 147 638 369 319 4521 1106 38 918 98
internal_value=0.0277817 0.042317 0.0446777 0.0398879 0.0439625 0.0287876 0.0465015 0.0477578 0.0409764 0.0485051 0.0457299 0.0192198 0.0463935 0.0451431
internal_weight=18865.8 15234.1 14772.8 8925.82 8464.18 1213.57 7250.61 7145.8 1025.34 7084.7 968.591 72.3225 4556.8 3614.34
internal_count=68320 26510 21590 16109 11869 2953 8916 8278 1610 7909 1291 185 5537 4619
is_linear=0
shrinkage=0.03


Tree=23
num_leaves=15
num_cat=0
split_feature=0 6 7 6 25 7 13 6 26 25 6 13 8 7
split_gain=17663.6 536.507 357.703 505.319 961.616 921.075 437.245 198.756 353.641 1551.65 307.125 192.489 155.966 150.006
threshold=1.0000000180025095e-35 2.5000000000000004 0.29705882352941182 4.5000000000000009 1.0000000180025095e-35 0.48333333333333339 1.0000000180025095e-35 9.5000000000000018 1.0000000180025095e-35 1.0000000180025095e-35 6.5000000000000009 1.0000000180025095e-35 1.0000000180025095e-35 0.30384615384615393
decision_type=2 2 2 2 2 2 2 2 2 2 2 2 2 2
left_child=-1 -2 -3 4 6 -6 12 8 9 -5 11 -11 -4 -9
right_child=1 2 3 7 5 -7 -8 13 -10 10 -12 -13 -14 -15
leaf_value=-0.033084772918612039 -0.029979788911013411 0.046651405482624524 0.056122679648657095 -0.033777849474043047 0.050652020872255787 -0.029760126970126415 0.053379629217737805 0.024671580125435501 0.043927727130698958 0.046842223768761779 -0.040176918842678516 -0.037908358735488007 -0.028455924792934611 0.04995066829195572
leaf_weight=3535.2935675531626 94.043058276176453 7246.6818746104836 20.518274664878845 315.16974317282438 857.1854238063097 150.62714990973473 76.991118393838406 233.5093000382185 2315.3479507863522 1028.0871991664171 39.556956879794598 24.588606171309948 400.98154857009649 2299.5863068699837
leaf_count=41810 1060 8799 19 3347 831 864 84 591 3205 1162 238 155 3879 2276
internal_value=0.0272778 0.0414078 0.0418555 0.0373771 0.0217715 0.0386289 -0.0123045 0.0411338 0.0367167 0.0248492 0.0417706 0.0448563 -0.0243193 0.0476226
internal_weight=18638.2 15102.9 15008.8 7762.15 1506.3 1007.81 498.491 6255.85 3722.75 1407.4 1092.23 1052.68 421.5 2533.1
internal_count=68320 26510 25450 16651 5677 1695 3982 10974 8107 4902 1555 1317 3898 2867
is_linear=0
shrinkage=0.03


Tree=24
num_leaves=15
num_cat=0
split_feature=10 17 31 25 29 30 12 6 6 25 13 8 27 23
split_gain=11298.5 2404.8 1937.07 2278.29 596.324 2672.7 571.525 490.241 395.02 372.064 330.65 310.412 294.363 252.499
threshold=1.0000000180025095e-35 1.0000000180025095e-35 1.0000000180025095e-35 1.0000000180025095e-35 1.0000000180025095e-35 1.0000000180025095e-35 1.0000000180025095e-35 2.5000000000000004 13.500000000000002 1.0000000180025095e-35 1.0000000180025095e-35 1.0000000180025095e-35 1.0000000180025095e-35 1.0000000180025095e-35
decision_type=2 2 2 2 2 2 2 2 2 2 2 2 2 2
left_child=1 2 4 -4 5 6 9 -6 11 12 13 -5 -1 -11
right_child=-2 -3 3 8 7 -7 -8 -9 -10 10 -12 -13 -14 -15
leaf_value=0.029738733058978763 -0.032970849675715078 -0.033070133517549158 -0.033495449156778184 0.046353241349380549 -0.028634060715600974 -0.034737748328848357 -0.013372592978052111 0.049945419360106137 -0.032919452977611174 0.045755693431117635 -0.039416271340049977 -0.04109972689506871 -0.038676409431386539 -0.032862706421257222
leaf_weight=1103.7234504893422 2467.8865957260132 440.97753272950649 706.02715354412794 860.50660058110952 72.246510922908783 449.26441717147827 172.67112074047327 5742.4774574041367 66.782983124256134 6167.3593509718776 41.646367944777012 38.037116892635822 59.538846522569656 36.876236133277416
leaf_count=3205 30080 4920 8211 957 837 4240 863 5478 813 7392 240 232 409 443
internal_value=0.0267646 0.0360029 0.0379662 0.00745559 0.0416489 0.0363487 0.0405618 0.0489681 0.0374101 0.0418193 0.0447215 0.0426437 0.0262315 0.0452874
internal_weight=18426 15958.1 15517.2 1671.35 13845.8 8031.08 7581.82 5814.72 965.327 7409.14 6245.88 898.544 1163.26 6204.24
internal_count=68320 38240 33320 10213 23107 16792 12552 6315 2002 11689 8075 1189 3614 7835
is_linear=0
shrinkage=0.03


Tree=25
num_leaves=15
num_cat=0
split_feature=2 17 29 12 7 4 28 27 7 7 28 27 27 28
split_gain=15463.4 2556.91 475.726 646.425 407.964 299.239 2068.47 330.625 325.503 241.348 228.579 119.674 84.5275 120.996
threshold=1.0000000180025095e-35 1.0000000180025095e-35 1.0000000180025095e-35 1.0000000180025095e-35 1.0000000180025095e-35 1.0000000180025095e-35 1.0000000180025095e-35 1.0000000180025095e-35 0.42261904761904767 0.43303571428571436 1.0000000180025095e-35 1.0000000180025095e-35 1.0000000180025095e-35 1.0000000180025095e-35
decision_type=2 2 2 2 2 2 2 2 2 2 2 2 2 2
left_child=1 2 3 5 -4 8 -7 -8 12 -10 -5 -12 -1 -14
right_child=-2 -3 4 10 -6 6 7 -9 9 -11 11 -13 13 -15
leaf_value=0.045141418332703333 -0.032897602938945211 -0.0326519423480401 -0.020150521979857883 -0.037036391739054035 0.048974254307685358 -0.041247591419703813 0.046841199605286515 -0.047094029291497093 -0.017126443297693424 0.030629240971136975 0.052162464114229506 -0.040993592214333394 -0.045771575455727333 0.036503098239261629
leaf_weight=5084.7079760879278 3256.2324023470283 432.82635683566332 77.782456621527672 140.64694441854954 5683.0072466135025 323.02858576178551 1179.5331815481186 34.606674298644066 104.36806710809469 1073.560162588954 51.803057365119457 16.194061115384102 16.287114158272743 841.92219864577055
leaf_count=6561 40555 4957 829 929 5479 2006 1356 182 954 2473 78 82 81 1996
internal_value=0.0263816 0.0391988 0.0413253 0.0369618 0.0480401 0.0382194 0.0262067 0.0441576 0.0408117 0.0263943 -0.015202 0.0299049 0.0436684 0.034933
internal_weight=18316.5 15060.3 14627.4 8866.66 5760.79 8658.01 1537.17 1214.14 7120.85 1177.93 208.644 67.9971 5942.92 858.209
internal_count=68518 27963 23006 16698 6308 15609 3544 1538 12065 3427 1089 160 8638 2077
is_linear=0
shrinkage=0.03


Tree=26
num_leaves=15
num_cat=0
split_feature=0 30 29 6 29 12 15 28 7 6 28 6 26 7
split_gain=15283.3 959.944 3550.82 451.429 207.706 516.54 272.861 200.723 128.116 1085.1 327.394 110.663 182.917 118.785
threshold=1.0000000180025095e-35 1.0000000180025095e-35 1.0000000180025095e-35 3.5000000000000004 1.0000000180025095e-35 1.0000000180025095e-35 1.0000000180025095e-35 1.0000000180025095e-35 0.42261904761904767 9.5000000000000018 1.0000000180025095e-35 4.5000000000000009 1.0000000180025095e-35 0.22649572649572652
decision_type=2 2 2 2 2 2 2 2 2 2 2 2 2 2
left_child=-1 4 -3 -4 5 6 8 -7 11 10 -10 12 -2 -13
right_child=1 2 3 -5 -6 7 -8 -9 9 -11 -12 13 -14 -15
leaf_value=-0.032805529628698496 0.046884666248087556 -0.033939596076218131 -0.023705078645054591 0.048334451248390808 0.047961753048137976 -0.036803089437481971 -0.030811329063231519 0.028998625463837035 -0.037471841702759599 0.048273975306572722 0.031228686835390825 0.021764606334668563 -0.0082745842944450202 0.040537676163913794
leaf_weight=3268.0489421412349 3795.4245989918709 726.32380095124245 82.026401273906231 1668.5687823295593 3954.6722401380539 107.52444349229336 47.626225836575031 68.001752264797688 212.64870250970125 923.57225354015827 88.226839683949947 342.25440010428429 54.768482774496078 2747.0761025995016
leaf_count=41804 4222 7714 934 1621 3864 726 391 160 1431 905 227 714 174 3631
internal_value=0.0259166 0.0388672 0.0218193 0.0449561 0.0422882 0.0396121 0.0407006 -0.0112913 0.0411186 0.0321552 -0.0173129 0.0426992 0.0460991 0.0384596
internal_weight=18086.8 14818.7 2476.92 1750.6 12341.8 8387.12 8211.6 175.526 8163.97 1224.45 300.876 6939.52 3850.19 3089.33
internal_count=68518 26714 10269 2555 16445 12581 11695 886 11304 2563 1658 8741 4396 4345
is_linear=0
shrinkage=0.03


Tree=27
num_leaves=15
num_cat=0
split_feature=2 17 3 29 25 28 26 26 13 27 7 4 28 27
split_gain=14039.9 2332.85 566.595 501.582 1618.45 1746.08 1260.49 787.574 484.348 245.353 97.5309 93.5263 785.467 212.858
threshold=1.0000000180025095e-35 1.0000000180025095e-35 1.0000000180025095e-35 1.0000000180025095e-35 1.0000000180025095e-35 1.0000000180025095e-35 1.0000000180025095e-35 1.0000000180025095e-35 1.0000000180025095e-35 1.0000000180025095e-35 0.48333333333333339 1.0000000180025095e-35 1.0000000180025095e-35 1.0000000180025095e-35
decision_type=2 2 2 2 2 2 2 2 2 2 2 2 2 2
left_child=1 2 3 4 5 -1 -7 8 10 -8 11 -6 -13 -14
right_child=-2 -3 -4 -5 7 6 9 -9 -10 -11 -12 12 13 -15
leaf_value=-0.03654146144274794 -0.032713150155955432 -0.032483996149801429 -0.032705541633890521 0.047232361925717579 0.046852350305886394 -0.035792772578922043 0.049187963536540161 -0.039326233495110011 -0.038787459683564424 -0.042995705869399617 0.034716792256818715 -0.048659649725332488 0.047569129727593418 -0.054274625042506013
leaf_weight=523.1699848100543 3083.6290027946234 414.44462119787931 96.488764308393002 5559.2225748300552 5047.5782898366451 208.86281569302082 835.8949179649353 105.89104194194078 64.351255126297474 26.710878595709801 921.24553142488003 88.17976738512516 836.70586802065372 18.779997363686562
leaf_count=4295 40555 4957 1249 5490 5122 1921 843 657 396 128 1606 388 833 78
internal_value=0.0255016 0.0376743 0.0397034 0.0401946 0.035685 0.00837675 0.0303133 0.0418326 0.0430654 0.0463253 0.0438284 0.0452283 0.0365342 0.0453238
internal_weight=17831.2 14747.5 14333.1 14236.6 8677.37 1594.64 1071.47 7082.73 6976.84 862.606 6912.49 5991.24 943.666 855.486
internal_count=68518 27963 23006 21757 16267 7187 2892 9080 8423 971 8027 6421 1299 911
is_linear=0
shrinkage=0.03


Tree=28
num_leaves=15
num_cat=0
split_feature=2 17 3 7 27 31 12 26 25 4 15 26 4 31
split_gain=13412.1 2222.23 539.478 214.228 122.585 176.996 88.2151 82.9545 635.184 393.916 76.5301 118.206 63.1821 206.861
threshold=1.0000000180025095e-35 1.0000000180025095e-35 1.0000000180025095e-35 0.42261904761904767 1.0000000180025095e-35 1.0000000180025095e-35 1.0000000180025095e-35 1.0000000180025095e-35 1.0000000180025095e-35 1.0000000180025095e-35 1.0000000180025095e-35 1.0000000180025095e-35 1.0000000180025095e-35 1.0000000180025095e-35
decision_type=2 2 2 2 2 2 2 2 2 2 2 2 2 2
left_child=1 2 3 4 10 6 7 8 -6 -10 12 -12 13 -1
right_child=-2 -3 -4 -5 5 -7 -8 -9 9 -11 11 -13 -14 -15
leaf_value=0.043970840685325259 -0.032625728739977655 -0.032367188829241444 -0.032614729169251851 0.030042986812749382 -0.034460649031502366 -0.04307035867751887 0.002196798107801132 0.044046590903298308 0.045539687997394482 -0.048961273828894376 -0.035553654198792355 0.048740153082894117 0.038356470222913941 -0.044040508879092596
leaf_weight=7763.7387007623911 3000.3915248885751 403.62583601474762 93.89414981752634 1875.7300763726234 118.78599061816931 26.766196861863136 72.615539111196995 666.88184224069118 702.869953379035 41.964484542608261 28.711357101798058 31.045096799731255 2704.9130225032568 24.000355094671249
leaf_count=9379 40555 4957 1249 4657 1279 146 281 726 741 180 240 31 3963 134
internal_value=0.025127 0.0370321 0.0390119 0.0394907 0.0409449 0.033273 0.0345522 0.0360851 0.0299294 0.0402056 0.0421293 0.00819741 0.0423222 0.0436987
internal_weight=17555.9 14555.5 14151.9 14058 12182.3 1629.88 1603.12 1530.5 863.62 744.834 10552.4 59.7565 10492.7 7787.74
internal_count=68518 27963 23006 21757 17100 3353 3207 2926 2200 921 13747 271 13476 9513
is_linear=0
shrinkage=0.03


Tree=29
num_leaves=15
num_cat=0
split_feature=0 17 29 30 14 28 15 7 6 28 6 26 7 26
split_gain=13266.3 2138.12 495.846 2342.18 397.076 572.082 251.96 141.532 1155.68 166.348 130.47 246.908 104.291 88.0423
threshold=1.0000000180025095e-35 1.0000000180025095e-35 1.0000000180025095e-35 1.0000000180025095e-35 1.0000000180025095e-35 1.0000000180025095e-35 1.0000000180025095e-35 0.42261904761904767 9.5000000000000018 1.0000000180025095e-35 4.5000000000000009 1.0000000180025095e-35 0.22649572649572652 1.0000000180025095e-35
decision_type=2 2 2 2 2 2 2 2 2 2 2 2 2 2
left_child=-1 2 3 4 6 -6 7 10 9 -9 11 -2 -12 -7
right_child=1 -3 -4 -5 5 13 -8 8 -10 -11 12 -13 -14 -15
leaf_value=-0.032542978886855041 0.045985956893750117 -0.032253347194674604 0.045781980315185662 -0.034397825231113184 -0.037310309232232941 -0.038934881172995081 -0.032625294887664184 -0.037640738827720316 0.046249327649231564 0.020003603673418489 0.020120316742536237 -0.028793579697221169 0.038578476928851246 0.042862465258115198
leaf_weight=3010.5154134556651 3593.7324594855309 393.0589132681489 5418.1469224095345 425.84439989179373 151.7013445943594 12.437833838164805 43.536736123263836 207.00665427744389 896.30755430459976 57.439159668982029 309.97619308531284 40.070693522691727 2556.0322517976165 209.56707488000393
leaf_count=41804 3632 4957 5490 4239 1013 74 378 1381 905 186 649 156 3373 281
internal_value=0.0246995 0.0367383 0.0386866 0.0341649 0.0377801 0.00756791 0.0392452 0.0396544 0.0299897 -0.0251059 0.0413794 0.0451598 0.0365839 0.0382508
internal_weight=17325.4 14314.9 13921.8 8503.65 8077.81 373.706 7704.1 7660.56 1160.75 264.446 6499.81 3633.8 2866.01 222.005
internal_count=68518 26714 21757 16267 12028 1368 10660 10282 2472 1567 7810 3788 4022 355
is_linear=0
shrinkage=0.03


Tree=30
num_leaves=15
num_cat=0
split_feature=0 30 29 6 29 25 12 27 31 6 8 7 6 6
split_gain=12687.2 750.703 3030.34 336.165 192.019 441.359 451.651 435.89 277.503 242.191 86.0952 84.3648 992.159 111.687
threshold=1.0000000180025095e-35 1.0000000180025095e-35 1.0000000180025095e-35 3.5000000000000004 1.0000000180025095e-35 1.0000000180025095e-35 1.0000000180025095e-35 1.0000000180025095e-35 1.0000000180025095e-35 3.5000000000000004 1.0000000180025095e-35 0.48333333333333339 9.5000000000000018 5.5000000000000009
decision_type=2 2 2 2 2 2 2 2 2 2 2 2 2 2
left_child=-1 4 -3 -4 5 7 11 8 9 -2 -11 13 -13 -7
right_child=1 2 3 -5 -6 6 -8 -9 -10 10 -12 12 -14 -15
leaf_value=-0.03246082805018518 -0.034004890683434187 -0.033599159736053874 -0.019976647324673434 0.045276572261145315 0.044967161482156119 0.044051416004762887 -0.036050636954065789 -0.038624856969482133 -0.039559944692258479 0.039703781527653866 0.021754472179811857 -0.038056631581548039 0.045817299425769148 0.034053279289299125
leaf_weight=2914.2913267165422 52.013752512633801 661.37942934036255 74.273633688688278 1583.2007814645767 3756.8268820047379 4531.2456413060427 69.996074169874191 104.09499484300613 55.799553982913494 586.58878739178181 410.16199606657028 151.75491520017385 772.80992199480534 1299.2853068560362
leaf_count=41605 442 7636 899 1620 3872 4882 509 675 329 761 1287 931 782 1920
internal_value=0.0245234 0.0362938 0.0206859 0.0423497 0.039363 0.0367414 0.039701 0.0200245 0.0255574 0.0290282 0.0323236 0.0404869 0.0320446 0.0418246
internal_weight=17023.7 14109.4 2318.85 1657.47 11790.6 8033.75 6825.09 1208.66 1104.56 1048.76 996.751 6755.1 924.565 5830.53
internal_count=68150 26545 10155 2519 16390 12518 9024 3494 2819 2490 2048 8515 1713 6802
is_linear=0
shrinkage=0.03


Tree=31
num_leaves=15
num_cat=0
split_feature=0 17 29 30 12 25 26 28 13 26 28 27 7 6
split_gain=12133.6 1946.89 450.679 2121.28 421.099 256.213 913.462 608.617 384.894 332.543 168.168 99.395 79.5385 875.802
threshold=1.0000000180025095e-35 1.0000000180025095e-35 1.0000000180025095e-35 1.0000000180025095e-35 1.0000000180025095e-35 1.0000000180025095e-35 1.0000000180025095e-35 1.0000000180025095e-35 1.0000000180025095e-35 1.0000000180025095e-35 1.0000000180025095e-35 1.0000000180025095e-35 0.48333333333333339 9.5000000000000018
decision_type=2 2 2 2 2 2 2 2 2 2 2 2 2 2
left_child=-1 2 3 4 5 6 -2 -8 9 12 -6 -12 -7 -14
right_child=1 -3 -4 -5 10 8 7 -9 -10 -11 11 -13 13 -15
leaf_value=-0.032382117936802741 -0.037643551137763909 -0.03240101322240943 0.044423787734529582 -0.034066775994596191 -0.036130225596734018 0.042305598115788559 -0.043657960752802816 0.044471778487337563 -0.039225469796092108 -0.04294629793889769 0.047289664613012913 -0.04040931485200127 -0.038025665911944999 0.045104450473004272
leaf_weight=2834.9317564815283 180.07522867619991 367.57941807061434 5267.0699743032455 401.42385238409042 97.426481001079082 5674.9395128786564 77.335189089179039 788.78191615641117 54.909776695072651 42.644055783748627 48.77841866761446 15.14310986548662 134.02795487642288 761.64333929121494
leaf_count=41605 1342 4872 5500 4234 708 6366 372 853 330 230 70 79 807 782
internal_value=0.0241846 0.0357121 0.0375611 0.0331933 0.0366223 0.0376256 0.0238116 0.0365951 0.0397921 0.0404492 -0.0113236 0.0264361 0.0409916 0.0326587
internal_weight=16746.7 13911.8 13544.2 8277.13 7875.7 7714.36 1046.19 866.117 6668.16 6613.25 161.348 63.9215 6570.61 895.671
internal_count=68150 26545 21673 16173 11939 11082 2567 1225 8515 8185 857 149 7955 1589
is_linear=0
shrinkage=0.03


Tree=32
num_leaves=15
num_cat=0
split_feature=0 17 29 30 12 25 26 26 27 25 27 4 31 31
split_gain=11620.1 1860.18 434.711 2026.01 401.736 244.85 872.22 315.486 102.158 77.0004 125.72 61.7264 667.714 235.619
threshold=1.0000000180025095e-35 1.0000000180025095e-35 1.0000000180025095e-35 1.0000000180025095e-35 1.0000000180025095e-35 1.0000000180025095e-35 1.0000000180025095e-35 1.0000000180025095e-35 1.0000000180025095e-35 1.0000000180025095e-35 1.0000000180025095e-35 1.0000000180025095e-35 1.0000000180025095e-35 1.0000000180025095e-35
decision_type=2 2 2 2 2 2 2 2 2 2 2 2 2 2
left_child=-1 2 3 4 5 6 -2 11 -8 10 -6 13 -13 -7
right_child=1 -3 -4 -5 9 7 8 -9 -10 -11 -12 12 -14 -15
leaf_value=-0.032306096857167163 -0.037381857180601552 -0.032302894844169129 0.043798249351607081 -0.033933781775059756 0.034404101217937105 0.041333563275216541 0.037280865070175265 -0.042421864111151009 -0.043784811794750737 -0.035655663759292945 -0.037583624555142324 -0.051086688398042271 0.040219103955609528 -0.042514260065871161
leaf_weight=2757.5229789614677 175.95872841775417 357.78325160592794 5183.2948315739632 391.06405905634165 56.497500598430634 5569.2225801944733 841.58545754849911 42.277122624218464 14.113696828484533 66.838670060038567 35.429012134671211 78.615256279706955 854.00104292482138 30.215660847723484
leaf_count=41605 1342 4872 5500 4234 117 6732 1158 232 67 509 231 340 1024 187
internal_value=0.0238796 0.0351915 0.0370023 0.0326824 0.0360382 0.0370242 0.0234251 0.0391573 0.0359353 -0.0111721 0.00661632 0.0396864 0.0325146 0.0408798
internal_weight=16454.4 13696.9 13339.1 8155.82 7764.75 7605.99 1031.66 6574.33 855.699 158.765 91.9265 6532.05 932.616 5599.44
internal_count=68150 26545 21673 16173 11939 11082 2567 8515 1225 857 348 8283 1364 6919
is_linear=0
shrinkage=0.03


Tree=33
num_leaves=15
num_cat=0
split_feature=2 17 3 29 25 28 26 26 27 6 6 7 6 6
split_gain=10720.1 1755.15 427.258 423.554 1239.44 1490.45 1003.72 611.328 196.609 77.0889 48.4709 944.298 112.385 57.4985
threshold=1.0000000180025095e-35 1.0000000180025095e-35 1.0000000180025095e-35 1.0000000180025095e-35 1.0000000180025095e-35 1.0000000180025095e-35 1.0000000180025095e-35 1.0000000180025095e-35 1.0000000180025095e-35 3.5000000000000004 9.5000000000000018 0.42261904761904767 8.5000000000000018 5.5000000000000009
decision_type=2 2 2 2 2 2 2 2 2 2 2 2 2 2
left_child=1 2 3 4 5 -1 -7 9 -8 -6 11 12 13 -11
right_child=-2 -3 -4 -5 7 6 8 -9 -10 10 -12 -13 -14 -15
leaf_value=-0.036251292539208363 -0.032231062187500277 -0.032207492332923748 -0.032207713295470876 0.043208073176250868 0.043414279953474973 -0.035167540890160928 0.044628334977278722 -0.038406918168407175 -0.04218580540970094 0.041628001153737978 0.042800823079952165 -0.037823967587531558 -0.042139169934602989 0.033112077881632444
leaf_weight=477.13863527029753 2600.0413461849093 348.22240128368139 81.98905423283577 5097.7650697231293 2219.1721573323011 184.87531313300133 806.31081739068031 93.345139540731907 24.07171668112278 2100.7372444346547 876.3650054037571 153.45990600436926 15.434017308056353 1092.635953232646
leaf_count=4258 40355 4872 1250 5500 2382 1917 855 632 119 2411 960 963 82 1594
internal_value=0.023572 0.0342632 0.0360141 0.0364402 0.03215 0.00747367 0.0280275 0.0377708 0.0421033 0.038873 0.0364937 0.0348476 0.0383251 0.0387163
internal_weight=16171.6 13571.5 13223.3 13141.3 8043.55 1492.4 1015.26 6551.15 830.383 6457.8 4238.63 3362.27 3208.81 3193.37
internal_count=68150 27795 22923 21673 16173 7149 2891 9024 974 8392 6010 5050 4087 4005
is_linear=0
shrinkage=0.03


Tree=34
num_leaves=15
num_cat=0
split_feature=0 17 30 26 12 15 26 4 31 6 26 28 26 6
split_gain=10665.7 1699.72 165.024 1085.69 130.424 161.155 76.6304 62.5221 157.75 102.547 103.375 730.69 48.901 48.1213
threshold=1.0000000180025095e-35 1.0000000180025095e-35 1.0000000180025095e-35 1.0000000180025095e-35 1.0000000180025095e-35 1.0000000180025095e-35 1.0000000180025095e-35 1.0000000180025095e-35 1.0000000180025095e-35 3.5000000000000004 1.0000000180025095e-35 1.0000000180025095e-35 1.0000000180025095e-35 6.5000000000000009
decision_type=2 2 2 2 2 2 2 2 2 2 2 2 2 2
left_child=-1 2 4 -4 5 7 -7 8 -2 -9 11 -11 -6 -13
right_child=1 -3 3 -5 12 6 -8 9 -10 10 -12 13 -14 -15
leaf_value=-0.032161731580054045 0.039632854795870698 -0.032114681136352977 -0.032649133498091468 0.036357008998309098 -0.035086324107905839 -0.034765103948160569 0.043061341378685544 -0.025705497584301712 -0.044717012485446628 -0.048260797876908783 0.039573216057125389 0.041020169409231956 0.021133922895646886 0.026000505596911576
leaf_weight=2608.4242368936539 8180.4338663965464 338.8930451720953 234.6446388065815 1628.9370381608605 14.447132803499697 40.266651049256325 15.740913629531859 25.519690662622452 19.891988031566143 103.67069454491138 1487.2137949243188 574.81984201073647 312.34838677197695 291.59235402941704
leaf_count=41605 10516 4872 3178 2684 117 394 17 102 118 497 1860 678 918 594
internal_value=0.0232935 0.0341958 0.0359343 0.0276655 0.0373263 0.0378948 -0.0128008 0.0381609 0.0394273 0.0339756 0.0345977 0.0269634 0.0186294 0.0359723
internal_weight=15876.8 13268.4 12929.5 1863.58 11065.9 10739.1 56.0076 10683.1 8200.33 2482.82 2457.3 970.083 326.796 866.412
internal_count=68150 26545 21673 5862 15811 14776 411 14365 10634 3731 3629 1769 1035 1272
is_linear=0
shrinkage=0.03


Tree=35
num_leaves=15
num_cat=0
split_feature=2 17 29 30 12 6 25 28 31 28 4 28 31 31
split_gain=9872.53 1640.19 387.679 1796.81 366.315 286.676 233.729 718.594 315.546 165.141 121.097 900.703 238.276 175.829
threshold=1.0000000180025095e-35 1.0000000180025095e-35 1.0000000180025095e-35 1.0000000180025095e-35 1.0000000180025095e-35 2.5000000000000004 1.0000000180025095e-35 1.0000000180025095e-35 1.0000000180025095e-35 1.0000000180025095e-35 1.0000000180025095e-35 1.0000000180025095e-35 1.0000000180025095e-35 1.0000000180025095e-35
decision_type=2 2 2 2 2 2 2 2 2 2 2 2 2 2
left_child=1 2 3 4 6 -4 7 -1 -9 -6 12 -12 -8 -13
right_child=-2 -3 5 -5 9 -7 10 8 -10 -11 11 13 -14 -15
leaf_value=-0.040519733558533326 -0.032091949153301352 -0.032418687472188845 -0.027043979875699703 -0.033752930204570306 -0.035712356640604376 0.042183467214884189 0.039266492069529535 0.036951197745167065 -0.038501101075697909 0.025382956602349429 -0.044496934317435663 -0.052721085703461658 -0.042650099958956779 0.041890837517158053
leaf_weight=144.11958511918783 2467.5643716827035 333.26936241984367 54.304285556077957 369.77743569761515 95.863326296210289 5015.3744504451752 5387.3812954053283 770.32557560503483 53.219342261552811 67.916717551648617 135.04778647422791 18.00493948161602 32.036310650408268 734.18703535199165
leaf_count=948 40490 4930 827 4244 734 5593 6901 1206 333 157 916 77 200 817
internal_value=0.0229892 0.0332779 0.0349786 0.0307817 0.0339908 0.0414408 0.0349899 0.0212506 0.0320676 -0.0103589 0.0370971 0.0268057 0.0387809 0.0396155
internal_weight=15678.4 13210.8 12877.6 7807.88 7438.1 5069.68 7274.32 967.665 823.545 163.78 6306.66 887.24 5419.42 752.192
internal_count=68373 27883 22953 16533 12289 6420 11398 2487 1539 891 8911 1810 7101 894
is_linear=0
shrinkage=0.03


Tree=36
num_leaves=15
num_cat=0
split_feature=0 17 29 30 12 15 4 28 7 28 13 26 7 26
split_gain=9830.61 1588.63 413.572 1729.84 354.173 175.965 170.393 1071.92 159.516 158.299 69.4954 266.68 46.8752 58.4583
threshold=1.0000000180025095e-35 1.0000000180025095e-35 1.0000000180025095e-35 1.0000000180025095e-35 1.0000000180025095e-35 1.0000000180025095e-35 1.0000000180025095e-35 1.0000000180025095e-35 0.42261904761904767 1.0000000180025095e-35 1.0000000180025095e-35 1.0000000180025095e-35 0.43303571428571436 1.0000000180025095e-35
decision_type=2 2 2 2 2 2 2 2 2 2 2 2 2 2
left_child=-1 2 3 4 5 6 8 -8 10 -6 -2 -12 13 -10
right_child=1 -3 -4 -5 9 -7 7 -9 12 -11 11 -13 -14 -15
leaf_value=-0.032027813625010434 0.039944079635526326 -0.03234087662722282 0.041688952177816103 -0.033631549308836106 -0.035511181554748139 -0.027366056990796282 -0.045110525562621011 0.036168885371548026 -0.033584766812590088 0.024582769608374445 -0.040878282593599068 0.044721930475083854 0.027151886709407557 0.039227708266015855
leaf_weight=2476.794833086431 4808.1330253332853 324.18637356907129 4928.09414935112 360.12476894259453 93.549742110073566 40.749022446572781 169.60374069586396 1046.0454589575529 25.542103596031666 68.025164641439915 46.190724551677704 111.79690909385681 877.04150152951479 16.074392586946487
leaf_count=41764 5743 4930 5596 4244 734 372 851 1504 279 157 246 116 1815 22
internal_value=0.0227188 0.0332182 0.0349066 0.0305439 0.0337095 0.0347034 0.0350604 0.0248238 0.037174 -0.0101927 0.0393 0.0196661 0.0256753 -0.00536238
internal_weight=15392 12915.2 12591 7662.88 7302.75 7141.18 7100.43 1215.65 5884.78 161.575 4966.12 157.988 918.658 41.6165
internal_count=68373 26609 21679 16083 11839 10948 10576 2355 8221 891 6105 362 2116 301
is_linear=0
shrinkage=0.03


Tree=37
num_leaves=15
num_cat=0
split_feature=0 17 29 30 12 15 4 28 31 28 6 6 6 26
split_gain=9427.58 1520.42 405.345 1653.39 338.51 168.007 164.731 1022.24 153.108 151.799 68.2094 108.118 95.8764 133.763
threshold=1.0000000180025095e-35 1.0000000180025095e-35 1.0000000180025095e-35 1.0000000180025095e-35 1.0000000180025095e-35 1.0000000180025095e-35 1.0000000180025095e-35 1.0000000180025095e-35 1.0000000180025095e-35 1.0000000180025095e-35 3.5000000000000004 6.5000000000000009 5.5000000000000009 1.0000000180025095e-35
decision_type=2 2 2 2 2 2 2 2 2 2 2 2 2 2
left_child=-1 2 3 4 5 6 8 -8 10 -6 -2 12 -12 -14
right_child=1 -3 -4 -5 9 -7 7 -9 -10 -11 11 -13 13 -15
leaf_value=-0.031963759009232658 0.041153649480295103 -0.032265672050361981 0.041212753298764282 -0.033514348611916774 -0.035317856724768198 -0.027046691114517053 -0.044485687865825005 0.035511011739327455 -0.045166074370238771 0.023814575505283795 0.030888602596386792 0.039694081231374599 -0.051345938666543203 0.024925219644308657
leaf_weight=2408.3386921398342 2143.9230935275555 315.32766383141279 4836.8666277527809 350.6854935772717 91.27488911151886 40.005761422216892 166.86915840953588 1033.6519630625844 20.420782953500748 68.114689260721207 1766.9825143665075 1773.169317767024 30.834674365818501 62.414065569639206
leaf_count=41764 2470 4930 5596 4244 734 372 851 1504 123 157 2979 2317 222 110
internal_value=0.0224545 0.032774 0.0344304 0.0300835 0.0331829 0.0341621 0.0345128 0.0243864 0.0366087 -0.0100299 0.036899 0.0343866 0.0293241 -0.000291306
internal_weight=15108.9 12700.5 12385.2 7548.35 7197.66 7038.27 6998.27 1200.52 5797.74 159.39 5777.32 3633.4 1860.23 93.2487
internal_count=68373 26609 21679 16083 11839 10948 10576 2355 8221 891 8098 5628 3311 332
is_linear=0
shrinkage=0.03


Tree=38
num_leaves=15
num_cat=0
split_feature=0 29 30 12 6 28 4 28 7 6 26 13 13 26
split_gain=9043.04 499.507 2376.35 316.428 175.152 145.62 133.345 975.198 161.529 853.778 129.457 87.6801 61.0286 254.604
threshold=1.0000000180025095e-35 1.0000000180025095e-35 1.0000000180025095e-35 1.0000000180025095e-35 3.5000000000000004 1.0000000180025095e-35 1.0000000180025095e-35 1.0000000180025095e-35 0.42261904761904767 8.5000000000000018 1.0000000180025095e-35 1.0000000180025095e-35 1.0000000180025095e-35 1.0000000180025095e-35
decision_type=2 2 2 2 2 2 2 2 2 2 2 2 2 2
left_child=-1 2 3 6 11 -5 8 -8 12 10 -10 -3 -2 -14
right_child=1 4 -4 5 -6 -7 7 -9 9 -11 -12 -13 13 -15
leaf_value=-0.031901840980135925 0.037802548698627987 -0.021201039621487585 -0.03288463348646313 -0.035132000173917488 0.040722480927902462 0.023076375279883488 -0.043893637178265499 0.034873837168219783 -0.037478935762294462 0.041030384964445013 0.010909858185700554 0.044273379872933533 -0.04053144888580465 0.043605431261078284
leaf_weight=2341.6293786242604 4726.9964332357049 62.361084580421448 543.19011281430721 89.039331145584583 4711.0831071734428 68.186876766383648 164.08974672481418 1021.1534853726625 179.40721765905619 672.29132892936468 68.672412768006325 25.994271874427795 45.936615407466888 108.80979676544666
leaf_count=41764 6520 924 7678 734 5560 157 851 1504 1292 798 194 28 253 116
internal_value=0.0221967 0.0323418 0.0275989 0.0321982 0.0399376 -0.00987013 0.0331453 0.0239636 0.03502 0.0234782 -0.0240731 -0.00187618 0.0371949 0.0185999
internal_weight=14828.8 12487.2 7687.77 7144.58 4799.44 157.226 6987.36 1185.24 5802.11 920.371 248.08 88.3554 4881.74 154.746
internal_count=68373 26609 20097 12419 6512 891 11528 2355 9173 2284 1486 952 6889 369
is_linear=0
shrinkage=0.03


Tree=39
num_leaves=15
num_cat=0
split_feature=2 17 29 30 12 25 28 13 28 15 5 13 13 8
split_gain=8360.13 1396.02 357.242 1504.04 306.766 235.711 627.395 322.464 139.743 63.4002 39.2784 54.6505 37.0606 33.3264
threshold=1.0000000180025095e-35 1.0000000180025095e-35 1.0000000180025095e-35 1.0000000180025095e-35 1.0000000180025095e-35 1.0000000180025095e-35 1.0000000180025095e-35 1.0000000180025095e-35 1.0000000180025095e-35 1.0000000180025095e-35 1.0000000180025095e-35 1.0000000180025095e-35 1.0000000180025095e-35 1.0000000180025095e-35
decision_type=2 2 2 2 2 2 2 2 2 2 2 2 2 2
left_child=1 2 3 4 5 6 -1 13 -6 10 11 -8 -10 -7
right_child=-2 -3 -4 -5 8 7 9 -9 12 -11 -12 -13 -14 -15
leaf_value=-0.03994607851667762 -0.031840078763127187 -0.03217403993532237 0.0396290294035333 -0.033293495203733779 -0.034953252540844443 0.0319638647699012 0.020958688714124211 -0.039420017003466527 -0.0041541277704006093 -0.020133285995581847 0.041460616527669032 0.043024336513022732 0.040699088462603346 0.037143333153196151
leaf_weight=138.70031798258424 2205.5716010890901 301.52183622866869 4699.1892293095589 332.57596604526043 86.843518674373627 1528.9780217558146 415.08278863877058 51.635452471673489 27.857581697404385 22.630435019731522 218.34702807664871 134.21940156817436 40.385611824691296 4341.7469029724598
leaf_count=948 40490 4930 6420 4244 734 2716 924 317 98 220 250 145 59 5878
internal_value=0.0219553 0.0315709 0.0331681 0.0290302 0.0319894 0.0329339 0.018874 0.0351385 -0.00971327 0.029205 0.0306658 0.0263626 0.0223664 0.0357955
internal_weight=14545.3 12339.7 12038.2 7339 7006.43 6851.34 928.98 5922.36 155.087 790.28 767.649 549.302 68.2432 5870.72
internal_count=68373 27883 22953 16533 12289 11398 2487 8911 891 1539 1319 1069 157 8594
is_linear=0
shrinkage=0.03


Tree=40
num_leaves=15
num_cat=0
split_feature=0 30 6 28 7 6 25 6 5 12 15 25 4 31
split_gain=8376.04 416.5 707.942 271.023 125.975 467.497 179.166 121.511 96.4263 73.8452 89.6137 73.3856 60.6679 155.515
threshold=1.0000000180025095e-35 1.0000000180025095e-35 3.5000000000000004 1.0000000180025095e-35 0.42261904761904767 4.5000000000000009 1.0000000180025095e-35 9.5000000000000018 1.0000000180025095e-35 1.0000000180025095e-35 1.0000000180025095e-35 1.0000000180025095e-35 1.0000000180025095e-35 1.0000000180025095e-35
decision_type=2 2 2 2 2 2 2 2 2 2 2 2 2 2
left_child=-1 4 -3 8 9 6 -6 -7 -4 10 12 -11 13 -2
right_child=1 2 3 -5 5 7 -8 -9 -10 11 -12 -13 -14 -15
leaf_value=-0.031788489453707609 0.037605610096121074 -0.028342533013271869 0.02346935926672945 -0.031882500108492043 0.022100135374668484 0.019448457226704005 -0.030094413599864565 0.04024872003513158 0.039551590301063505 0.028977797649541608 -0.012781544913534714 -0.0086272363013662531 0.031394843141490131 -0.048349846911626755
leaf_weight=2231.4017160460353 6393.2103942558169 250.30615182220936 1141.2629809938371 70.351886317133904 92.849071189761162 371.16050409525633 162.7153837531805 799.0650170147419 477.09130109846592 168.09264703840017 34.013931974768639 64.455826818943024 2041.792376562953 18.8885692730546
leaf_count=42025 8721 4255 4256 1222 223 1333 901 961 596 357 235 379 3247 103
internal_value=0.021612 0.0314722 0.0187273 0.0257072 0.0339073 0.0256283 -0.0111187 0.0336563 0.0282144 0.0352603 0.0357177 0.0185426 0.0359133 0.0373512
internal_weight=14316.7 12085.3 1939.01 1688.71 10146.2 1425.79 255.564 1170.23 1618.35 8720.45 8487.91 232.548 8453.89 6412.1
internal_count=68814 26789 10329 6074 16460 3418 1124 2294 4852 13042 12306 736 12071 8824
is_linear=0
shrinkage=0.03


Tree=41
num_leaves=15
num_cat=0
split_feature=0 17 7 6 26 6 26 6 7 8 8 6 7 15
split_gain=8022.73 1304.67 167.187 469.429 786.017 93.5021 274.366 392.706 252.676 284.191 149.575 125.71 115.419 75.1094
threshold=1.0000000180025095e-35 1.0000000180025095e-35 0.42261904761904767 8.5000000000000018 1.0000000180025095e-35 4.5000000000000009 1.0000000180025095e-35 8.5000000000000018 0.24264705882352944 1.0000000180025095e-35 1.0000000180025095e-35 7.5000000000000009 0.19375000000000003 1.0000000180025095e-35
decision_type=2 2 2 2 2 2 2 2 2 2 2 2 2 2
left_child=-1 2 5 4 -4 -2 7 8 9 12 -10 13 -7 -12
right_child=1 -3 3 -5 -6 6 -8 -9 10 -11 11 -13 -14 -15
leaf_value=-0.031732375289272544 0.038256787291614545 -0.031651118288826552 -0.036037177947363157 0.038893026539052286 0.02830782664514038 -0.052834862723788713 0.036051366397537379 -0.036577751512909297 0.0095715169978052277 -0.041724468511943592 0.035107025566113621 -0.050779318131576087 0.033998531991570546 -0.034975657311431686
leaf_weight=2169.2254181057215 3196.9700575768948 291.72931450605392 258.38124700263143 853.04409031569958 503.87684850394726 15.364778622984884 4702.6974194198847 94.942373428493738 278.69875549525023 99.786212828010321 1455.5382793843746 15.631312165409325 125.15198190510273 13.776181310415266
leaf_count=42025 4197 4964 2456 1120 1137 68 7096 1199 730 783 2629 103 175 132
internal_value=0.0213279 0.0309961 0.0325702 0.0236058 0.00649112 0.0340179 0.0320245 0.0229995 0.0258253 -0.00302157 0.0297574 0.0335431 0.0244516 0.0344456
internal_weight=14074.8 11905.6 11613.9 1615.3 762.258 9998.56 6801.59 2098.89 2003.95 240.303 1763.64 1484.95 140.517 1469.31
internal_count=68814 26789 21825 4713 3593 17112 12915 5819 4620 1026 3594 2864 243 2761
is_linear=0
shrinkage=0.03


Tree=42
num_leaves=15
num_cat=0
split_feature=0 17 29 25 14 5 13 4 31 7 7 4 31 31
split_gain=7697.01 1249.14 411.525 1074.02 623.363 376.912 317.074 235.047 149.66 105.148 97.5041 103.92 597.068 169.185
threshold=1.0000000180025095e-35 1.0000000180025095e-35 1.0000000180025095e-35 1.0000000180025095e-35 1.0000000180025095e-35 1.0000000180025095e-35 1.0000000180025095e-35 1.0000000180025095e-35 1.0000000180025095e-35 0.29705882352941182 0.48333333333333339 1.0000000180025095e-35 1.0000000180025095e-35 1.0000000180025095e-35
decision_type=2 2 2 2 2 2 2 2 2 2 2 2 2 2
left_child=-1 2 3 5 10 6 7 -2 9 -9 11 13 -13 -5
right_child=1 -3 -4 4 -6 -7 -8 8 -10 -11 -12 12 -14 -15
leaf_value=-0.031678108706012752 -0.025094051198644465 -0.031572482096069769 0.039290118066751395 0.038620716596852955 -0.037109806718371663 0.040019625775866027 0.034115859279781086 0.029333101983373033 -0.038615219818239913 -0.0023663592318753238 0.024700258207056031 -0.047926490560510453 0.03540564884342555 -0.047372995866906714
leaf_weight=2108.6670842282474 490.23691378161311 283.80214648321271 4427.057832300663 3996.2739680111408 111.06955497711897 208.43037997186184 166.6078829318285 173.22539009153843 60.603626370429993 205.85394502431154 770.35841001570225 86.796444788575172 705.59480000287294 20.585996083915234
leaf_count=42025 4935 4964 5623 5056 832 256 293 403 393 885 1678 398 967 106
internal_value=0.0210812 0.030585 0.0321299 0.0275978 0.0332267 0.00304805 -0.00397987 -0.0108114 0.00510872 0.0121151 0.034628 0.0362171 0.026269 0.0381781
internal_weight=13815.2 11706.5 11422.7 6995.64 5690.68 1304.96 1096.53 929.92 439.683 379.079 5579.61 4809.25 792.391 4016.86
internal_count=68814 26789 21825 16202 9037 7165 6909 6616 1681 1288 8205 6527 1365 5162
is_linear=0
shrinkage=0.03


Tree=43
num_leaves=15
num_cat=0
split_feature=0 29 30 25 28 26 26 13 27 6 7 6 6 7
split_gain=7394.92 503.24 2043.04 378.122 785.774 539.417 520.453 328.72 197.407 125.708 96.6551 784.187 89.5025 164.272
threshold=1.0000000180025095e-35 1.0000000180025095e-35 1.0000000180025095e-35 1.0000000180025095e-35 1.0000000180025095e-35 1.0000000180025095e-35 1.0000000180025095e-35 1.0000000180025095e-35 1.0000000180025095e-35 3.5000000000000004 0.48333333333333339 9.5000000000000018 5.5000000000000009 0.24264705882352944
decision_type=2 2 2 2 2 2 2 2 2 2 2 2 2 2
left_child=-1 2 3 4 -2 -6 7 10 -7 -3 12 -12 -5 -14
right_child=1 9 -4 6 5 8 -8 -9 -10 -11 11 -13 13 -15
leaf_value=-0.03162561795821809 -0.037780675152908713 -0.0002629789228125785 -0.032745710265828808 0.038561186726160483 -0.037748395405326041 0.039264423054160169 -0.038923104754175285 -0.038848210392077601 -0.044658022884549085 0.03889960617547402 -0.038474379225181481 0.039490465727430916 -0.055811583917177873 0.030275689411236154
leaf_weight=2049.6918630637228 216.47648807987571 74.896872945129871 506.72196457907557 3633.623399131 101.95110194012523 669.29417407512665 89.454738490283489 55.106279503554106 26.10064409673214 4305.5883089900017 143.06047205626965 613.95339551568031 20.228270567953587 1036.1401852294803
leaf_count=42025 1772 899 7801 4669 756 812 654 365 122 5590 847 766 93 1643
internal_value=0.0208662 0.0302285 0.0252998 0.0297535 0.0128902 0.0266539 0.0328102 0.0339777 0.0361042 0.0382293 0.0347157 0.0247496 0.0363232 0.0286192
internal_weight=13542.3 11492.6 7112.11 6605.39 1013.82 797.346 5591.57 5502.11 695.395 4380.49 5447.01 757.014 4689.99 1056.37
internal_count=68814 26789 20300 12499 3462 1690 9037 8383 934 6489 8018 1613 6405 1736
is_linear=0
shrinkage=0.03


Tree=44
num_leaves=15
num_cat=0
split_feature=0 17 29 30 14 28 4 28 27 7 6 31 27 28
split_gain=7115.07 1154.69 394.134 1341.54 258.886 351.276 131.951 887.33 255.225 190.286 897.488 152.071 93.733 48.4246
threshold=1.0000000180025095e-35 1.0000000180025095e-35 1.0000000180025095e-35 1.0000000180025095e-35 1.0000000180025095e-35 1.0000000180025095e-35 1.0000000180025095e-35 1.0000000180025095e-35 1.0000000180025095e-35 0.42261904761904767 9.5000000000000018 1.0000000180025095e-35 1.0000000180025095e-35 1.0000000180025095e-35
decision_type=2 2 2 2 2 2 2 2 2 2 2 2 2 2
left_child=-1 2 3 4 6 -6 9 -8 -9 11 13 -2 -7 -11
right_child=1 -3 -4 -5 5 12 7 8 -10 10 -12 -13 -14 -15
leaf_value=-0.031574843670343133 0.036319835328566696 -0.031424673212099324 0.038597043159629793 -0.033203827256257618 -0.036096927447775026 0.036148014824576684 -0.043889523027669484 0.035710617535559354 -0.048968302445619602 -0.037316998712480356 0.039013188269129653 -0.047839299957815579 -0.040690293905876168 0.0014738063510890363
leaf_weight=1992.2648304030299 4160.135085657239 269.36061133816838 4243.9641594290733 318.08513680845499 123.48445953056216 165.31197561323643 158.21857959032059 924.19301822036505 33.071112856268883 188.34213742613792 610.25331929326057 19.301314681768417 15.520923987030981 34.040366187691689
leaf_count=42025 5846 4964 5623 4291 996 244 836 1326 179 1347 782 95 81 179
internal_value=0.0206835 0.0299275 0.0314312 0.0269248 0.0298994 0.00287985 0.0312407 0.0218973 0.0327772 0.0333191 0.0202106 0.0359293 0.0295175 -0.0313678
internal_weight=13255.5 11263.3 10993.9 6749.96 6431.87 304.317 6127.55 1115.48 957.264 5012.07 832.636 4179.44 180.833 222.383
internal_count=68814 26789 21825 16202 11911 1321 10590 2341 1505 8249 2308 5941 325 1526
is_linear=0
shrinkage=0.03


Tree=45
num_leaves=15
num_cat=0
split_feature=0 17 29 30 14 15 26 6 26 6 6 26 6 26
split_gain=6835.06 1119.43 368.886 1261.1 229.638 152.312 150.651 100.371 198.059 50.3887 29.6816 56.4752 47.4076 44.9353
threshold=1.0000000180025095e-35 1.0000000180025095e-35 1.0000000180025095e-35 1.0000000180025095e-35 1.0000000180025095e-35 1.0000000180025095e-35 1.0000000180025095e-35 3.5000000000000004 1.0000000180025095e-35 9.5000000000000018 7.5000000000000009 1.0000000180025095e-35 8.5000000000000018 1.0000000180025095e-35
decision_type=2 2 2 2 2 2 2 2 2 2 2 2 2 2
left_child=-1 2 3 4 5 7 -6 8 -2 10 13 12 -12 -9
right_child=1 -3 -4 -5 6 -7 -8 9 -10 -11 11 -13 -14 -15
leaf_value=-0.031525615966986879 0.038382357100955285 -0.031867076741776183 0.038280360519308762 -0.033110329067764753 -0.037818314271163354 -0.028720793660619394 0.014825534807614806 0.028951083393975736 -0.049683114207451293 0.034836894060644615 0.011516156654958067 0.035647194945989412 -0.040444200966931972 0.01617735584919823
leaf_weight=1930.5560766793787 1788.0569828599691 259.39824081584811 4084.3788459300995 301.59398510307074 60.982151854783297 38.104612357914448 245.46615575999022 2685.8299876749516 23.172115877270699 954.1051904335618 125.9671630486846 86.837844997644424 17.954868525266647 274.76399025321007
leaf_count=41901 2377 4894 5529 4176 440 396 889 5027 119 1430 304 118 103 654
internal_value=0.0205177 0.0296966 0.0311914 0.0268054 0.029674 0.030969 0.00433089 0.0313518 0.0372513 0.0287726 0.0269576 0.0165498 0.00498948 0.0277672
internal_weight=12877.2 10946.6 10687.2 6602.84 6301.24 5994.79 306.448 5956.69 1811.23 4145.46 3191.35 230.76 143.922 2960.59
internal_count=68357 26456 21562 16033 11857 10528 1329 10132 2496 7636 6206 525 407 5681
is_linear=0
shrinkage=0.03


Tree=46
num_leaves=15
num_cat=0
split_feature=0 29 25 28 26 14 26 27 6 7 6 6 7 27
split_gain=6566.01 446.022 1422.74 1111.55 863.788 532.318 243.441 181.055 122.594 83.3089 712.486 80.9987 151.129 61.7833
threshold=1.0000000180025095e-35 1.0000000180025095e-35 1.0000000180025095e-35 1.0000000180025095e-35 1.0000000180025095e-35 1.0000000180025095e-35 1.0000000180025095e-35 1.0000000180025095e-35 3.5000000000000004 0.48333333333333339 9.5000000000000018 5.5000000000000009 0.24264705882352944 1.0000000180025095e-35
decision_type=2 2 2 2 2 2 2 2 2 2 2 2 2 2
left_child=-1 2 3 -2 -5 6 9 -6 -3 11 -11 -4 -13 -14
right_child=1 8 5 4 7 -7 -8 -9 -10 10 -12 12 13 -15
leaf_value=-0.03147808825977038 -0.034559199733786738 -0.0012678838582638326 0.037550401271614013 -0.034838765730093459 0.038364022892021697 -0.036291993383876779 -0.042928308782055558 -0.043861124630772408 0.037929126899160809 -0.038148939208234062 0.038564669259491272 -0.052302200556806566 0.03238908491015003 0.0099059821473470797
leaf_weight=1876.2857581749558 564.97569802030921 72.980396665632725 3380.6836099028587 204.66429405286908 661.11570484191179 101.01753797382116 37.408348143100739 24.899363175034523 3966.0890716314316 133.79002220928669 584.71017163991928 20.615005895495415 870.2215169146657 126.50300423800945
leaf_count=41901 7254 917 4602 2901 836 819 225 119 5495 805 773 97 1314 299
internal_value=0.020303 0.0293416 0.0245986 -0.00164513 0.0192311 0.0318687 0.0332059 0.0353693 0.0372201 0.033764 0.0242725 0.0353133 0.0278735 0.0295398
internal_weight=12626 10749.7 6710.6 1455.66 890.679 5254.95 5153.93 686.015 4039.07 5116.52 718.5 4398.02 1017.34 996.725
internal_count=68357 26456 20044 11110 3856 8934 8115 955 6412 7890 1578 6312 1710 1613
is_linear=0
shrinkage=0.03


Tree=47
num_leaves=15
num_cat=0
split_feature=10 29 4 28 26 12 6 31 6 15 6 6 26 26
split_gain=4285.39 564.749 634.9 1774.45 567.843 293.151 171.893 150.289 102.389 98.7072 91.4013 118.783 98.8594 97.6041
threshold=1.0000000180025095e-35 1.0000000180025095e-35 1.0000000180025095e-35 1.0000000180025095e-35 1.0000000180025095e-35 1.0000000180025095e-35 2.5000000000000004 1.0000000180025095e-35 3.5000000000000004 1.0000000180025095e-35 9.5000000000000018 7.5000000000000009 1.0000000180025095e-35 1.0000000180025095e-35
decision_type=2 2 2 2 2 2 2 2 2 2 2 2 2 2
left_child=1 2 5 -4 -3 6 -1 9 -6 10 11 13 -13 -8
right_child=-2 4 3 -5 8 -7 7 -9 -10 -11 -12 12 -14 -15
leaf_value=-0.031377523829465417 -0.03141487755699271 -0.031424607149454442 -0.034821136880325447 0.030279609682339635 0.00061171232726917296 -0.013390799765754351 0.028425449740824379 -0.041368321340483738 0.037634335045326726 -0.023928890091068987 0.037855202422352997 -0.03718504699312767 0.02771774832436533 0.0082538109603910899
leaf_weight=44.681171376258135 1298.3650324344635 112.16793663799763 628.14850065857172 941.43149492144585 68.58675966411829 165.58669429272413 4063.3974068388343 28.135573018342257 3878.5652201771736 32.59076189994812 773.99753952026367 47.474250372499228 37.854424588382244 228.55621733516455
leaf_count=1027 30096 2511 10468 1937 828 1143 11423 205 5495 412 1049 893 64 806
internal_value=0.0201404 0.026198 0.0210289 0.00422371 0.0350998 0.0258928 0.0271311 0.0276338 0.0369918 0.0280097 0.0283393 0.0266552 -0.00835831 0.0273522
internal_weight=12349.5 11051.2 6991.85 1569.58 4059.32 5422.27 5256.69 5212.01 3947.15 5183.87 5151.28 4377.28 85.3287 4291.95
internal_count=68357 38261 29427 12405 8834 17022 15879 14852 6323 14647 14235 13186 957 12229
is_linear=0
shrinkage=0.03


Tree=48
num_leaves=15
num_cat=0
split_feature=0 17 29 30 25 28 27 13 31 12 7 4 28 27
split_gain=6066.69 1034 356.982 1140.45 257.844 602.949 354.293 323.603 255.534 181.627 89.6275 94.8746 584.347 179.12
threshold=1.0000000180025095e-35 1.0000000180025095e-35 1.0000000180025095e-35 1.0000000180025095e-35 1.0000000180025095e-35 1.0000000180025095e-35 1.0000000180025095e-35 1.0000000180025095e-35 1.0000000180025095e-35 1.0000000180025095e-35 0.48333333333333339 1.0000000180025095e-35 1.0000000180025095e-35 1.0000000180025095e-35
decision_type=2 2 2 2 2 2 2 2 2 2 2 2 2 2
left_child=-1 2 3 4 5 -2 8 9 -7 10 11 -6 -13 -14
right_child=1 -3 -4 -5 7 6 -8 -9 -10 -11 -12 12 13 -15
leaf_value=-0.031387866370141237 -0.038498135862043807 -0.031784569560848117 0.037400210326517053 -0.03287377583569645 0.036219975060025174 0.03616109131014629 -0.039835811845938346 -0.037305490717302457 -0.039871554645520065 -0.034027495315252863 0.022590815323612432 -0.04557422696831423 0.037298099206276941 -0.058140166176063754
leaf_weight=1772.0881173945963 162.28149542212486 248.30447517707944 3821.3543469309807 284.81827671080828 3536.5360856726766 654.9549382776022 68.629277862608433 61.164785262197256 42.237048305571079 37.038106702268124 701.78667148202658 93.711301498115063 622.48477204144001 18.106307730078697
leaf_count=41901 1229 4894 5529 4176 5082 1010 442 460 242 359 1665 450 842 76
internal_value=0.0199017 0.0286809 0.0301673 0.0257676 0.0285528 0.0140068 0.0251404 0.0312142 0.0315455 0.0320521 0.0325456 0.0341801 0.0243481 0.0345872
internal_weight=12125.5 10353.4 10105.1 6283.75 5998.93 928.103 765.821 5070.83 697.192 5009.66 4972.63 4270.84 734.302 640.591
internal_count=68357 26456 21562 16033 11857 2923 1694 8934 1252 8474 8115 6450 1368 918
is_linear=0
shrinkage=0.03


Tree=49
num_leaves=15
num_cat=0
split_feature=0 17 5 6 4 26 25 13 12 13 6 6 6 28
split_gain=5841.42 994.325 88.6577 113.612 122.686 102.364 1342.07 247.284 66.6581 78.1836 47.8332 34.4727 65.517 34.4649
threshold=1.0000000180025095e-35 1.0000000180025095e-35 1.0000000180025095e-35 3.5000000000000004 1.0000000180025095e-35 1.0000000180025095e-35 1.0000000180025095e-35 1.0000000180025095e-35 1.0000000180025095e-35 1.0000000180025095e-35 9.5000000000000018 9.5000000000000018 8.5000000000000018 1.0000000180025095e-35
decision_type=2 2 2 2 2 2 2 2 2 2 2 2 2 2
left_child=-1 2 3 4 -2 6 -5 11 10 -10 -7 12 13 -8
right_child=1 -3 -4 5 -6 8 7 -9 9 -11 -12 -13 -14 -15
leaf_value=-0.031344781586169553 0.036644137123437719 -0.031727762136862445 0.036892752304266925 -0.034581828063282992 -0.02833131679157078 0.033278128920412486 0.026730961833792463 -0.037512448032666498 0.0010167074997851973 0.030295690918612488 0.015976914555559104 0.036538749183249279 -0.039421470677468394 0.034311481936343598
leaf_weight=1722.0432194136083 1686.9720787741244 241.39107821509242 1398.2852561511099 325.48747574910522 26.444589897990227 2720.3864997252822 1750.6962822601199 48.979179140180349 139.57312054187059 199.9517395272851 152.86056954413652 646.85759970545769 12.505434542894362 789.7474784553051
leaf_count=41901 2490 4894 2102 4476 158 4742 3385 363 749 424 501 934 80 1158
internal_value=0.0197387 0.0284144 0.0298816 0.0287276 0.035638 0.0269821 0.0234838 0.0293031 0.0308721 0.0182723 0.0323593 0.0303279 0.0287517 0.02909
internal_weight=11862.2 10140.1 9898.75 8500.46 1713.42 6787.05 3574.27 3248.79 3212.77 339.525 2873.25 3199.81 2552.95 2540.44
internal_count=68357 26456 21562 19460 2648 16812 10396 5920 6416 1173 5243 5557 4623 4543
is_linear=0
shrinkage=0.03


Tree=50
num_leaves=15
num_cat=0
split_feature=0 29 30 25 28 27 13 12 15 15 9 8 28 27
split_gain=5599.93 435.896 1590.88 297.907 653.779 341.347 310.085 173.988 65.4478 33.6481 18.7664 77.0534 599.709 191.152
threshold=1.0000000180025095e-35 1.0000000180025095e-35 1.0000000180025095e-35 1.0000000180025095e-35 1.0000000180025095e-35 1.0000000180025095e-35 1.0000000180025095e-35 1.0000000180025095e-35 1.0000000180025095e-35 1.0000000180025095e-35 1.0000000180025095e-35 1.0000000180025095e-35 1.0000000180025095e-35 1.0000000180025095e-35
decision_type=2 2 2 2 2 2 2 2 2 2 2 2 2 2
left_child=-1 2 3 4 -2 9 7 8 10 -6 11 12 -5 -14
right_child=1 -3 -4 6 5 -7 -8 -9 -10 -11 -12 -13 13 -15
leaf_value=-0.031302908564466998 -0.037138498676205507 0.036197839004821021 -0.032324998049034534 -0.044770687708685884 0.032023642150562803 -0.039096877261113126 -0.036921756817695064 -0.033842339965425343 -0.037936027922659793 -0.0092825134504653985 0.037117823215357157 0.032938202496031611 0.036743266607439838 -0.056787732821222181
leaf_weight=1671.0906592383981 194.2135068885982 3702.1094190590084 432.07912298664451 103.03409746289253 669.33041424304247 68.803973004221916 60.872783567756414 36.673076216131449 12.017636373639105 18.076802633702755 542.37148529291153 3549.8206349685788 577.22987692058086 20.248392835259438
leaf_count=41849 1732 6417 7768 541 1096 485 467 367 84 161 799 5826 812 86
internal_value=0.0195244 0.0280298 0.0232174 0.0273188 0.0119402 0.024552 0.0302994 0.031146 0.0316434 0.0309319 0.0318192 0.0311415 0.0220294 0.0335595
internal_weight=11658 9986.88 6284.77 5852.69 950.425 756.211 4902.27 4841.4 4804.72 687.407 4792.7 4250.33 700.512 597.478
internal_count=68490 26641 20224 12456 3474 1742 8982 8515 8148 1257 8064 7265 1439 898
is_linear=0
shrinkage=0.03


Tree=51
num_leaves=15
num_cat=0
split_feature=0 17 29 30 12 6 26 15 28 27 8 28 27 28
split_gain=5390.97 889.672 356.273 1051.88 228.795 133.604 153.894 114.119 97.7661 80.169 326.976 113.53 62.9636 59.9085
threshold=1.0000000180025095e-35 1.0000000180025095e-35 1.0000000180025095e-35 1.0000000180025095e-35 1.0000000180025095e-35 3.5000000000000004 1.0000000180025095e-35 1.0000000180025095e-35 1.0000000180025095e-35 1.0000000180025095e-35 1.0000000180025095e-35 1.0000000180025095e-35 1.0000000180025095e-35 1.0000000180025095e-35
decision_type=2 2 2 2 2 2 2 2 2 2 2 2 2 2
left_child=-1 2 3 4 5 6 -2 9 -6 13 -11 -12 -10 -7
right_child=1 -3 -4 -5 8 7 -8 -9 12 10 11 -13 -14 -15
leaf_value=-0.031262544153980679 0.036735695916571158 -0.03048442520529009 0.03665501737389408 -0.032709694330577611 -0.034082171713088076 0.024504451234992706 -0.038589590266267342 -0.028665881295090265 0.034599934919827942 -0.045406586524669022 -0.050386107930342344 0.029086818040997196 -0.039011834529575497 0.032814859657171472
leaf_weight=1623.7648069560528 1607.6331289820373 230.3420831412077 3577.5452437996864 274.11791693791747 74.811731461435556 2282.4132151640952 24.67134664952755 34.728404644876719 45.170386508107185 70.507460959255695 16.876335389912128 337.56559707224369 13.475959427654741 1194.4583751410246
leaf_count=41849 2428 4911 5532 4310 735 5038 129 383 71 378 95 637 76 1918
internal_value=0.0193587 0.0277601 0.029165 0.0246804 0.0274403 0.0283707 0.0355931 0.0253743 -0.0113541 0.0258568 0.0135377 0.0252812 0.0175965 0.0273612
internal_weight=11408.1 9784.32 9553.98 5976.43 5702.31 5568.85 1632.3 3936.55 133.458 3901.82 424.949 354.442 58.6463 3476.87
internal_count=68490 26641 21730 16198 11888 11006 2557 8449 882 8066 1110 732 147 6956
is_linear=0
shrinkage=0.03


Tree=52
num_leaves=15
num_cat=0
split_feature=0 7 6 7 25 13 6 6 13 13 7 12 27 31
split_gain=5185.65 168.042 273.273 323.432 549.245 188.262 107.613 104.515 144.445 85.3577 80.8294 49.6566 42.8529 56.2261
threshold=1.0000000180025095e-35 0.29705882352941182 4.5000000000000009 0.48333333333333339 1.0000000180025095e-35 1.0000000180025095e-35 9.5000000000000018 5.5000000000000009 1.0000000180025095e-35 1.0000000180025095e-35 0.30384615384615393 1.0000000180025095e-35 1.0000000180025095e-35 1.0000000180025095e-35
decision_type=2 2 2 2 2 2 2 2 2 2 2 2 2 2
left_child=-1 12 3 4 9 -5 7 11 -9 -3 -8 -4 -2 -14
right_child=1 2 6 5 -6 -7 10 8 -10 -11 -12 -13 13 -15
leaf_value=-0.03122346639388611 0.03274640276536836 -0.028599908309352565 0.033121553613982085 -0.027493993614880356 0.035812136637348953 0.034696865467989731 0.012081810413644057 0.012609032233568542 0.032938840415774939 0.057414641107371781 0.035616887264433961 0.0021221332863843997 0.025354576679181631 -0.043689253907453859
leaf_weight=1577.7178200185299 3984.1052178181708 177.36939733102918 848.005256280303 245.45692249014974 547.45597801357508 53.192841973155737 145.4515451528132 1085.6907454021275 443.4210491552949 10.915620326995848 1406.0289017558098 49.439140386879444 588.68602895736694 10.691340729594229
leaf_count=41849 7346 3498 1466 2233 860 101 540 5661 861 15 2267 262 1473 58
internal_value=0.019177 0.0274641 0.0236643 0.00992155 0.0206104 -0.0163992 0.0272366 0.0232849 0.0185081 -0.0235696 0.0334133 0.0314176 0.0316184 0.0241109
internal_weight=11173.6 9595.91 5012.43 1034.39 735.741 298.65 3978.04 2426.56 1529.11 188.285 1551.48 897.444 4583.48 599.377
internal_count=68490 26641 17764 6707 4373 2334 11057 8250 6522 3513 2807 1728 8877 1531
is_linear=0
shrinkage=0.03


Tree=53
num_leaves=15
num_cat=0
split_feature=0 17 29 30 25 28 27 6 6 7 6 28 6 6
split_gain=4978.17 825.199 366.266 1006.17 227.795 536.922 307.983 97.0184 65.9938 792.031 85.046 165.399 34.9935 137.037
threshold=1.0000000180025095e-35 1.0000000180025095e-35 1.0000000180025095e-35 1.0000000180025095e-35 1.0000000180025095e-35 1.0000000180025095e-35 1.0000000180025095e-35 3.5000000000000004 9.5000000000000018 0.42261904761904767 7.5000000000000009 1.0000000180025095e-35 5.5000000000000009 6.5000000000000009
decision_type=2 2 2 2 2 2 2 2 2 2 2 2 2 2
left_child=-1 2 3 4 5 -2 -7 -6 9 10 12 -12 -9 -14
right_child=1 -3 -4 -5 7 6 -8 8 -10 -11 11 -13 13 -15
leaf_value=-0.031185632859028711 -0.03823368307385442 -0.030350067120085408 0.036241560453290182 -0.032664694212858621 0.035397916636416629 0.029559326553973957 -0.039296356837938473 0.032702724733896765 0.035235990285654488 -0.038073430609793624 -0.047018383302177384 0.028178757659607905 -0.0026209011719460799 0.03075600436088187
leaf_weight=1532.9188348948956 154.01765592768788 219.64380494877696 3429.6017544865608 270.02580444514751 1555.6584057994187 658.04593929648399 64.042129348963499 1460.4774400740862 589.65545462816954 171.81966085359454 38.591844502836466 82.224457815289497 135.21522145718336 606.40576270222664
leaf_count=41849 1215 4911 5532 4310 2540 1255 436 2508 931 1147 227 142 443 1044
internal_value=0.0189546 0.0271011 0.028471 0.0238642 0.0266325 0.0125944 0.0234438 0.0292821 0.0261954 0.0240561 0.0286544 0.00411502 0.0299991 0.024667
internal_weight=10968.3 9435.43 9215.78 5786.18 5516.15 876.106 722.088 4640.05 3084.39 2494.73 2322.91 120.816 2202.1 741.621
internal_count=68490 26641 21730 16198 11888 2906 1691 8982 6442 5511 4364 369 3995 1487
is_linear=0
shrinkage=0.03


Tree=54
num_leaves=15
num_cat=0
split_feature=2 17 29 30 25 28 13 27 3 7 6 6 4 28
split_gain=4611.71 785.262 336.062 960.927 214.884 514.562 298.929 294.452 157.911 93.6741 779.067 144.806 103.288 522.059
threshold=1.0000000180025095e-35 1.0000000180025095e-35 1.0000000180025095e-35 1.0000000180025095e-35 1.0000000180025095e-35 1.0000000180025095e-35 1.0000000180025095e-35 1.0000000180025095e-35 1.0000000180025095e-35 0.42261904761904767 9.5000000000000018 8.5000000000000018 1.0000000180025095e-35 1.0000000180025095e-35
decision_type=2 2 2 2 2 2 2 2 2 2 2 2 2 2
left_child=1 2 3 4 5 -1 9 -7 -4 11 -11 12 -6 -14
right_child=-2 -3 8 -5 6 7 -8 -9 -10 10 -12 -13 13 -15
leaf_value=-0.037954874524659017 -0.031144619088579781 -0.030269542412033505 0.036020196028896875 -0.032580491941926436 0.034098553309580913 0.029068425530951111 -0.03714035699412728 -0.038962334558789044 -0.031072466182349618 -0.037969014488748648 0.036396587194198346 -0.046604278844179718 -0.044137994763529115 0.032992102268579598
leaf_weight=150.54777796193957 1439.9528781250119 213.71113307774067 3348.3863235712051 262.71260649338365 3182.1511092409492 649.22037217020988 61.023166738450527 62.674965482205153 31.753030963242054 163.10361384600401 567.8080353140831 21.10408628731966 94.52381370216608 477.10963904857635
leaf_count=1215 40579 4911 5532 4310 5384 1255 467 436 818 1075 883 128 743 754
internal_value=0.0188073 0.0265539 0.0278931 0.0234412 0.0261531 0.012411 0.0287473 0.0230702 0.0353881 0.0296411 0.0197948 0.0315462 0.0319876 0.0202273
internal_weight=10725.8 9285.83 9072.12 5691.98 5429.27 862.443 4566.82 711.895 3380.14 4505.8 730.912 3774.89 3753.78 571.633
internal_count=68490 27911 23000 16650 12340 2906 9434 1691 6350 8967 1958 7009 6881 1497
is_linear=0
shrinkage=0.03


Tree=55
num_leaves=15
num_cat=0
split_feature=0 17 29 30 7 4 27 7 13 26 26 5 7 26
split_gain=4583.67 788.327 356.446 909.547 115.104 161.851 286.724 94.0509 72.3133 151.646 89.5476 210.901 47.2589 54.4842
